{"b": 3.255897143005897e-05, "W": [-0.008826237730831198, 0.0077662820545588976, -0.016977576323463438, -0.007529716729844058, -0.0006635959906303023, -0.0019216219337778776, 0.014207284810358281, 0.001302757099097584, -0.0011117623042552597, -0.020023684432514642, 0.0011694254148939603, 0.001563066055816728, -0.00017066722332770377, -0.01217264297591324, 0.0045744715139241976, 0.0023719788666683923, 0.011593309872830311, 0.0100487198573223, -0.00638211900832548, 0.011572527479435393, -0.007955403398767808, 0.012425495473729028, 0.002916510380595736, -0.017252238145872983, 0.01831294426744589, -0.009103175925655505, -0.012611752332607404, -0.014899793681064444, -0.006566977695820243, -0.003869126348543353, 0.0008297727137748152, -0.021826776984017013, 0.002020608880653421, 0.0031986494035442826, -0.008668925724693558, 0.0035565814666426126, -0.0049279746664953935, -0.014027649762625147, 0.007078858703922954, -0.004024135520489332, -0.025657278897906272, 0.0035458087356979, -0.0037977339346140647, 0.0069058609011163905, -0.008156342747504399, 0.0033797655060291533, -0.006984950600208414, 0.016476056935375582, -0.0010035109164400768, 0.008840187578063236, -0.007875016844957266, -0.00482611964712203, 0.009514745064456136, -0.0019634890325227767, 0.00743256827567312, -0.0035280441965393873, -0.023997684801559616, 0.0009079849680907048, -0.0035241988976811604, 0.011151829208764443, 0.008297165531866347, 0.014952066698819965, 0.010963286343655674, 0.00398847901790516, 0.0028701358127098437, 0.0067119064306799744, -0.005839051537029563, 0.003453468873192028, 0.018762081595455615, -0.010738437127543654, -0.01385905942421645, -0.01811728235064851, 0.00294127537213084, 0.006557954078804038, 0.006399350237265313, 0.008208942929160436, -0.004667492909090352, -0.0018386345086132034, 0.01843360870822205, 0.0033914184100659116, -0.005783166227492276, 0.001739412910378549, 0.018035968198680967, 0.0029823610649656806, -0.0039215191880813995, -0.009245213797374476, -0.007288384378978042, 0.00932159749746084, 0.00159917378383415, -0.008548771574015943, -0.014147278449687974, -0.003303590263948676, 0.0023904879393603696, -0.0036740596542627216, -0.01498435416594463, -0.003091325269359552, -0.007117691177120592, -0.005135195752302837, 0.00398238203359755, 0.0060689306270463195, -0.009641127817432616, 0.004642960958112039, -0.0012020620676353136, 0.01227558005637449, 0.0008003173086195361, 0.016103047038256203, 0.008501183647953917, 0.00011956115873631122, 0.0034008130302896926, -0.017725535709836635, 0.0029117218829599516, -0.012153034181543268, 0.015216371841847688, 0.0018205582610072589, -0.027908141071419146, -0.006019125720466662, 0.0015117611223186814, -0.006833011202252971, 0.004044090238717889, -0.003101652560629721, -0.008634635835879994, 0.006498762081100248, -0.002364252966701001, -0.0005597884251407064, -0.007055145828211867, 0.0036100405418437297, 0.0026371743208206642, 0.008550978903898065, -0.00030607375511988293, 0.015027711136790866, 0.015859360215528005, 0.0184054160749266, -0.01340429045552475, -0.010122671287476272, 0.0040833676139679365, -0.007096760915202192, 0.012012150523068003, 0.0030760552923052116, -0.010408427959856609, -0.006839401307154358, 0.004290101867309791, 0.005345069328734617, 0.00015972799223945043, 0.0026951785333893022, 0.013556664833722967, -0.01173079110220307, 0.002769168699436886, -0.0030299591222011303, -0.014755073410517105, -0.0067387000128517295, -0.00798156146833167, 0.006621495517433483, -0.017861760522575806, -0.0033378011947260517, -0.006998265768376486, -0.002835313128991897, -0.0059472671315820794, 0.009245639153157957, 0.00428072280893669, -0.0009613990478323291, 0.009993016636063766, -0.0035437116905654895, 0.0041501751732470685, -0.014368146342970116, 0.013458375849857153, -0.012779684358928843, -0.006133686253489541, -0.0032170708091790925, 0.017549599527317213, 0.00560219262645823, 0.004179813307124334, 0.016314150053628212, 0.017400519982453802, 0.006050625071767311, 0.0073948037031609055, -0.010227883751773175, -9.649321980865346e-06, -0.016960084495301692, 0.0001733542006883582, -0.015087673423566504, 0.0006485693691434722, -0.0025979991359373466, 0.005865817362467555, 0.0024184745352592526, 0.009408557961966527, 0.016767360454094354, -0.005102726211894142, 0.001098955836376301, 0.004714510425998605, -0.005599362046981751, 0.005298611078043213, 0.003320774668812175, -0.0029543776848133764, 0.009050002414338374, 0.00661027150508485, -0.015273212566706822, -0.013277518348419188, -0.0033983993256229248, 0.014653578257617412, -0.0035282561880923356, -0.0028928039496515174, -0.009599676968158697, 0.004684957028982459, -0.013079346715248337, 0.007306717650304194, -0.000497811164664414, 0.0017544263228874933, -0.011315562984452226, -0.00703268724450243, 0.003397240193450747, -1.8558885085509252e-05, 0.019780853851225418, 0.017012002919352665, -0.009769142849251462, 0.008198113261864173, -0.014654892745354375, -0.003865234446721721, -0.002126092968996977, 0.007926486166786704, -0.0011841051568475026, -0.021375789392518038, -0.016074289260616874, -0.014420019723363438, -0.0025159240617768155, -0.01050948889004194, -0.02512672806560426, -0.009332856305312286, 0.00679404373256558, -0.014798900061333727, -0.002290463843671782, -0.0016404466987188161, 0.014558376951103921, -0.016016470251706057, 0.0022789672865036747, 0.007947006916059826, 0.013107475836928381, -0.009881554060408524, -0.0053827853001356665, -0.014111608169185065, -0.0043221557559152204, 0.005208153410483378, 0.013396837057916767, -0.008333424017911416, 0.00750177870226231, 0.00047576009751611024, 0.004412822505974031, 0.01747078433340593, 0.01254456504461974, 0.011748589127190122, -0.0004345151191102432, 0.008272857550444641, 0.007658530084218009, -0.016339999213198047, 0.0011169927528256632, -0.001225874905859822, -0.0064140140837631995, -0.0059334941564272315, -0.0022610651987112445, 0.015309439357057609, 0.0014263551041708224, 0.005404551915527255, 0.018671664859411262, 0.0002567164347681578, -0.010246572821670423, 0.00960717945997329, 0.010987614851240836, 0.0055838757121173975, 0.009023751935590666, -0.0012427588459156854, -0.007528992494920461, 0.007313261600043527, -9.354304021905353e-05, 0.012434487847526146, -0.003048660847131985, 0.019572546880639145, -0.004122633981120287, 0.005574734336796241, -0.003751009323763886, 0.0002795470856163553, -0.01817645934670352, 0.0199807284271865, -0.016258375903915382, 0.002513818996639848, -0.014344055083379527, 0.003524089972001012, 0.011925746135364465, -0.010993568499705843, -0.011151214892592163, -0.005475652901698203, 0.005074625836144076, -0.011851440523839579, 0.0010958243636245888, -0.0010742378380797985, 0.007689149764505674, 0.012201056171569231, -0.0038344559773806357, 0.0016930858901204426, -0.008821529602467694, 0.012915527752612446, 0.011337518127307319, 0.027912231646159434, 0.005705894568537621, 0.001364145836621216, 0.0056255803817812835, 0.005300816169689477, -0.006958981934446263, -0.003449380033276845, -0.0031628030672421837, 0.009178351863345457, -0.0009493616814276178, 0.0015329848078594612, -0.013213128881903275, 0.009293411775351968, -0.0010369368381551538, 0.006647075374675572, 0.0012704218106602903, 0.002853614262541782, -0.019652317832892747, -0.00539147957066871, -0.005501421712040116, 0.008943782298104608, 0.008748535993459492, -0.005877988561746115, 0.013290225921002048, 0.008265678820595316, -0.010667333547749118, 0.011315032036210405, 0.005630750631535674, -0.007616126144921578, 0.0025390372994123214, 0.0015273585332315066, -0.0053543334576272115, -0.02414869047359817, 0.0004899926752189032, -0.017334433311460982, -0.01839342266613996, -0.001566224919792488, 0.0027254282768054334, -0.004774441802342632, -0.0032547750633872487, -0.0034621850705360622, -0.006404707755638815, -0.005742540803465502, -0.0042087942614617785, 0.019891825499170488, 0.00962835454424945, -0.012666183451175624, -0.0059217474450438045, 0.006244217741248795, -0.01161548865929441, 0.009319287046300431, 0.0053857145233670274, 0.0013160726834142039, -0.0024062466867799813, 0.003563555236836972, 0.0075368005688416385, 0.018787613418186033, 0.00044187383425907395, 0.003000746685073811, 0.009000012138285296, 0.005938858817623177, 0.006951817391969096, 0.008726096055134585, -0.009661057884927288, -0.008691419216964681, 0.020123058069917373, -0.009940013314352592, -0.010281858879139544, -0.0006848693625810188, -0.007624595980471148, 0.004213969586596882, -0.0027951029647238354, 0.0071982814024189766, 4.8673627546891784e-05, 0.01379855417674732, -0.004823386450640386, -0.0032267490290213523, -0.017621182902073766, 0.0179330768324155, 0.005380163092103973, -0.008578071613405415, 0.012035238423557462, 0.003681011832958524, -0.004473906356934368, -0.005846683231751279, 0.013707458080472523, -0.00930858352303857, -0.002322879572347544, 0.006965908622171434, -0.005367145379096386, 0.009387820477963117, 0.009823086329316952, -0.01308783936585637, -0.0017275910787981816, 0.008875388565772866, -0.0030095905347700094, 0.011211575884750783, -0.010888261040972388, 0.002824953491422577, 0.0034300330453426336, -0.003116405390684922, -0.008142643245312782, -0.0007767095216123564, -0.015688877946070653, 0.009230058815054957, -0.018124486736241164, 0.0007103295402485338, 0.0060483809261325586, -0.006700185655685084, 0.003956261976365345, -0.007746605246156277, 0.01479571501346104, -0.010435586071824475, 0.013309821471066925, -0.0004995803413261805, 0.010793188602578286, -0.007348767539745988, 0.0033913145816277263, 0.016082993894895006, -0.014046901225689261, 0.011565982075613648, 0.0035114192671983255, 0.003932832679547262, 0.000562987050617833, 0.005898866425586392, 0.016035704763014587, -0.008981438684047036, 0.008692804054299227, -0.002988178065840235, 0.015886854548949475, -0.008159428372497226, -0.012589719750147117, -0.016980034827409916, 0.005108847229295186, 0.004673800268077952, -0.000763205167694764, -0.006494239743714427, -0.013302854429129292, 0.007013088787059687, 0.001472489890485135, -0.0116488769797519, 0.01358082044076846, -0.005614989940556234, -0.01266465885710762, 0.007097262940439162, 0.012440255548057454, -0.0021275840311615417, 0.005770122269672244, -0.0059364600383246735, 0.007449603502651705, -0.009983952628592783, -0.004425382889286069, 0.017118164540982018, -0.00928101810242916, -0.008580362848634088, -0.009801006454142887, 0.013522407159984037, -0.007303438871117898, 0.0022212888007653703, -0.01019238895459484, 0.014261499825564208, -0.009780524774022858, -0.0030202012927014756, 0.008557396103411323, 0.0005491316644984885, 0.0018351884618508748, -0.005141014027341449, -0.004959204331551752, -0.008085067529323557, -0.014910534609399834, -0.0089172444496044, -0.0019986044486393953, 0.012880745374539782, -0.0019024880418008834, -0.00299332393991242, -0.0007862680599463623, -0.010916261483673178, 0.0196851786171718, -0.00026114123649381666, -0.0099168051339093, 0.002684389490358341, 0.002037535323458476, -0.005829912161168242, -0.0010247888746558553, -0.0038004265723687414, 0.01432658044147294, 0.010777853829406076, -0.0011798973470707429, -0.0027638977882299956, -0.009157828583173508, -0.005495271156684441, 0.006222586520411628, -0.01927419753693495, 0.004047143136094619, 0.02422675077404476, -0.001745247595577025, 0.009988187569141375, -0.0011981112528250864, 0.032362751105290063, -0.019884574948308947, 0.00044114795040771246, 0.002050166191428262, -0.009703111227941572, -0.0006856597750786981, -0.009917675732777884, -0.021997534459657637, 0.01453595879044839, -0.007710756535282179, 0.0011696153802803078, 0.01001920980375338, 0.00408265964491177, 0.01914926347399638, -0.014647302048629995, -0.001356847192912111, 0.0018417233430997623, 0.002392820992335965, 0.011281955409674036, 0.003211286388202257, -0.0006787763926565885, 0.01591208900525333, 0.0127407264773915, -0.015253223348750677, 0.0025568473793204476, 0.025445269882594487, -0.02288495803047247, -0.005302356747877067, 0.009318967971572547, -0.005897998652224406, -0.012767503514549694, 0.005471123067756109, -0.00041030880287456264, 0.011662953402160116, -0.0065172235931723, 0.006039614409294771, 0.002265529112720463, 0.006058611518699312, 0.006593407417117185, 0.03007846787267468, 0.00010640709369235621, 0.00020579028575039963, -0.010532955768788292, -0.004354478324494032, -0.004962121579719741, -0.0012203215054341714, 0.009971365590117784, 0.009225616412955379, -0.00036039978269186544, -0.0024400593452524625, 0.008750615464603128, 0.01322688963286862, 0.002337669969855297, -0.007734234592911112, 0.009040642624645533, 0.0076257763485921524, -0.012616733716160611, 0.002929543167553818, 0.00781219505305527, -0.011602865574929521, 0.0062475354202409855, 0.003654444519413877, 0.0008127238195669245, -0.015462214992729519, 0.00956198712225176, -0.014056929488578335, 0.005206435711255571, -0.015208121300503166, 0.018278158137217122, -0.0006940382166349487, -0.003320138054550392, -0.0005829355378712449, 0.006463259284961996, -0.013288805839334667, -0.0028818918055710553, -0.004271751053962116, 0.01072250510738295, -0.0016110196461445576, -0.013217318303055833, -0.004838754506031776, 0.01713274693850757, 0.005313032199858994, 0.005927273642075144, 0.008355080790695368, -0.0040766764860136005, -0.0035138497061693755, -0.0043765489851206015, 0.004052930827298952, 0.0027940845627802057, 0.018847703383402404, -0.002621279432638573, -0.004870684334125652, -0.0029338998470765936, 0.01723795940124636, 0.0016953071520279055, -0.014385294207660805, -0.009350990441350746, -0.007595197732834212, -0.012638172863524548, 0.013284108043203303, -0.013615975979101367, 0.0008422448750335671, 0.0039154692215273386, -0.00020557737420066104, -0.008434230000195638, 0.014607670341480732, -0.006640812896147158, -0.007101376079582205, -0.001119283698184531, 0.0010662808352820705, 0.019817052177964867, 0.004643349668187144, -0.0009633465346553958, -0.0057713189280492365, -0.0013153522839982295, -0.001697294716885554, 0.00977174584181063, 0.002254518730421401, 0.01146366515802763, 0.026829839128189873, -0.008992378265111596, 0.011157231051896562, -0.002958073297219571, 0.011663217468663523, 0.0029696021675047705, 0.012617209415083281, -0.010650818282396364, -0.0023072935078003684, 0.013297051535075355, -0.012347144181047801, 0.002156799199981298, -0.010278687866114553, 0.009203238625473517, -0.0017711960359265537, -0.006425917310416229, -0.009673080633423828, 0.004081744062105465, -0.0011008746984601076, 0.0002447126743871994, 0.0053530877963480685, 0.005579116680133579, -0.005519611808295441, -0.005188777842640341, 0.0023720184360519012, -0.00551072814612313, -0.008792078364727866, -0.00849510397960681, 0.0001382929333320549, -0.010428391594438776, 0.00027630585925989454, -0.011585251311380024, -0.0014215733702523685, -0.025275737612114782, -0.0021265106318107316, -0.003374232774770385, 0.0010345074252726307, 0.008408989626636602, 0.012137017383455939, -0.007080449248797132, 0.011729493351386532, 0.007852763498360279, 0.00883848819509406, 0.006822056736861565, -0.015481199899210464, 0.01912038633753397, 0.00141400456079848, 0.0156327048874441, 0.006781791075855107, 0.012726462115051115, 0.013280808190202713, -0.007742627798442375, 0.018611795045053413, -0.0014881469019496186, -0.004363213130661712, -0.008061495109742895, -0.016539280878095863, 0.005267795205227451, 0.007447820916904045, 0.011712818701544092, -0.006975163340572625, 0.01371130471539603, -0.014010311592415297, -0.002044607317258294, -0.004187764698218271, 0.01046148187376909, 0.0006964526153458353, 0.014739765684423175, -0.01072331409092937, -0.0007474066829940011, 0.009851877897873104, -0.004269304095000436, -0.009421122862327526, 0.001807395288941165, 0.012002713178772773, -0.0023785297250796134, -0.01622652586883088, 0.0025580557368482574, -0.0057672377426704466, 0.016842213861600796, -0.010711047305896153, 0.00015635424292866683, -0.0013262732718939483, 0.022628265412928675, -0.002832869975320342, -0.0017758102532428586, 0.026691876928810407, 0.00931713773869908, -0.0019044947354853194, 0.01749329182070694, 0.014544244813209373, -0.0024519963934501636, -0.011193768804615308, 0.0066193368834185536, 0.010455303394607233, 0.001473801279407804, 0.005976674101405065, 0.004565212223468334, 0.001997713902693084, 0.010497204643467602, 0.0026498476637654943, 0.004111198245692648, 0.012302287469705775, -0.011325004648550435, 0.009948088693277748, 0.004510997032353098, 0.010377344114054237, 0.008177674986633214, -0.016751816031561662, 0.01333758069484367, -0.00010996293768413859, -0.0025391822265475456, 0.00593284200187976, -0.014930188064138374, -0.0010214721861188808, -0.020652877224199014, 0.008659062145884008, -0.00376442681681144, -0.002442004516182375, -0.0031632556418670576, -0.0005402284117236545, -0.0029611335071285153, 0.01898465057323082, 0.0012100669302169346, -0.00898515573936102, -0.010608901922719864, -0.007850294092526402, 0.0002760221682766786, -0.006304164004219336, -0.002585019386199517, -0.011171223050025358, 0.01059967594622082, 0.010895536018313095, 0.004072609255473503, 0.004614841819567452, 0.0028990549524481133, 0.001186228635012974, 0.0009861237049658014, -0.024271079301325535, -0.00961664147600745, -0.004682839854043699, 0.005582394822239829, -0.01100106779613419, 0.006227596010435381, -0.010348901240529697, 0.005909123536093209, -0.002875028372982775, -0.007934120714207288, 0.010891904231746819, 0.0019258368175522622, -0.0004040338146148533, -0.01011835071865297, -0.005649420040035862, 0.005968939127258427, -0.001111202592610692, -0.007406105134868232, 0.018309414834131576, -0.0013160612077233957, 0.003355805387275449, -0.016129015652813185, 0.006801891334244254, -0.016054526498745645, -0.01166268117804175, -0.006588022273999303, -0.007655343995726149, -0.005744559685458719, -0.007506496573908581, 0.011745782251275275, 0.006004773304465594, 0.003247909063463132, -0.0009522052060731565, -0.03770499693530663, 0.0006018294512998261, -0.01299974148947338, -0.006161657035267626, -0.012588542128607728, -0.013250549199149463, -0.0027654392989512034, 0.007376913329849218, 0.010669283477371106, 0.010090323174793444, -0.0036552875025596676, 0.0004324466614033676, 0.000131655063229803, 0.010802243374487491, -0.0011859211530510898, 0.016004244867104285, -0.013174797454082449, 0.01805871049336506, 0.004654621256044051, 0.00226269603708152, -0.022775785075802454, 0.009705483372434976, 0.00284299487620981, -0.01763118399433935, -0.010856044494251578, 0.02453633249143105, 0.011609591831250746, 0.005075979827400467, 0.018576293104161395, 0.013955981922436245, 0.019597056714434694, 0.003415926703859876, -0.01072048248922612, -0.002846357183334993, 0.012185106018579023, -0.0038116502919207517, -0.0006171127857346209, -0.008141158405613776, 0.003436382233390382, -0.016009131980590816, -0.004455157300522235, 0.006099987345713698, -0.014258601545812663, -0.00032888385427520985, -0.006378676644804936, 0.009810735267211044, 0.018789746335629017, 0.010492587332254307, 0.001119813413855584, -0.0037468415913457804, -0.002004012435072795, -0.004723505428312958, 0.008526059700548688, 0.015412427533985567, -0.01748047543772703, -5.263171644829269e-05, -0.0007645629687106682, 0.0041094328705715685, -0.012451352404881757, 0.002749564217455578, -0.002417721406420622, -0.0023145654235322047, 0.005569089347119718, 0.012869513222926822, 0.005502633430679795, 0.00037271812114081837, 0.008802965325668913, -0.0008657651451681152, 0.0020326238832850865, -0.017944126935934234, 0.009618717786210512, 0.0021974289241247042, 0.005649851720008569, -0.018132902478350147, -0.004151539455650998, 0.005312483360279564, 0.0014453037743067034, -0.014817936988043701, -0.012622972822734007, 0.002333051283244888, -0.009751693810955891, -0.00815382675682499, 0.0022184857088439914, 0.015259034673075511, 0.004538520546170823, -0.00777790475250499, 0.016590242171462675, -0.010223396058942557, 0.00464186362020512, 0.001974023799343398, 0.018412731907096948, 0.0011471891035406325, -0.022912754331289243, 0.006460129966747678, 0.0037342673264868015, -0.0021786212548696856, 0.002387083227786844, 0.016176378623183267, -0.029383011584329315, -0.0040815341961561915, -0.02456708930830844, 0.0023415543715213584, 0.00794179819928794, -0.006285776252856292, -0.006557858503250159, 0.0030145375599288206, 0.0005187954900089791, 0.00688229619782252, -0.02160747493865389, -0.00013555392154721753, -0.01782325560464722, -0.0043996129830962604, 0.015328119363525348, -0.0005701859607353456, -0.007320716275706083, 0.009365788452764963, 0.007255198778029684, 0.012818717710707151, -0.018085577719316674, 0.001992049454036301, 0.004089978768333555, -0.002312970046083003, 0.005560846389797727, 0.004764924974748371, 0.006225306992966126, 0.019477468090447175, -0.0038569285396549686, 0.0016474263596013131, 0.0008020033890020295, 0.005959281197016569, 0.013745522424973499, 0.011727037711030374, -0.010548996618263686, 0.01430797284893257, 0.0026553346438308637, 0.00011945811875751108, -0.005976878804630124, 0.0006654429575071216, -0.014275722257200498, 0.01769053214107828, 0.004095794193901663, -0.017738842716946722, -0.010296304970848042, -0.025664611361963244, 0.014460862859298493, -0.017537372741436887, -0.008307823135708837, -0.006946365349960511, -0.011539051537661119, 0.010196440518912568, 0.010912887344248577, 0.005733863149712584, -0.005557485571500151, 0.016124134905345325, 0.012130081436736334, -0.0016436495517887905, -0.018630815476204817, 0.0007341358484607982, 0.006901268691423, -0.002518546832009621, 0.0022739431908872, -0.005743335588982024, 0.011921690393663384, -0.013123873188128321, 0.003948267878546541, -0.0011005359645327778, 0.003265936458240196, 0.014322877429710286, 0.0029967865010409596, 0.0004029800142605274, 0.01523084430372305, 0.0030129096666357286, -0.0033337028873173464, 0.008104787881297506, 0.008906730817353761, 0.022955135164033472, 0.0014015613902019965, 0.01525684523772669, 0.008160016947346247, -0.012721830982308231, 0.006312896837059171, -0.002547544366557642, 0.020215647770884818, 0.019750012164388032, 0.02093541970703465, 0.0033368743007937164, -0.01638309154530637, -0.0005017357120192079, -0.01608513540330095, 0.013751045738278993, 0.006284271094670789, -0.004301915727052301, -0.00934054494693392, -0.005475597075017284, -0.00834283492414342, 0.008514899799630963, 0.014092767335321329, 0.00656981186620615, 0.00787128726382036, 0.01756772154656134, 0.021708841825987056, 0.0022234284722046213, -0.009511322529665463, 0.008709484431619346, 0.009729382077544287, 0.0017177763518351258, 0.014067158126944253, 0.0025533066368311503, 0.010463459700150338, -0.0014793925233120902, 0.006271805181414854, -0.01339564389570509, -0.009425807770867139, 0.002399072169592397, 0.016735309486252497, -0.015138978396053913, -0.010885383674218664, 0.010874100192199166, -0.00855926642250354, 0.006459625456773589, -0.005152377260917636, 0.01823148553931681, -0.006226850079142514, 0.010086689212270909, -0.008338173497473964, -0.005024020719715715, -0.002715338086785383, -0.01175663731716351, 0.01592061137147182, 0.0008259437672278222, 0.004885652531801663, 0.005419439209768701, -0.005811503577678985, 0.014223790834186784, -0.009097148402160422, 0.014012007880953196, 0.01080764499009162, -0.006372915212335216, -0.0033996742318588603, 0.00966492338172973, -0.0066161784916504525, -0.0016991490690118616, -0.004960848164594975, -0.012681337968411513, -0.013174568808514968, 0.0029564654042670384, -0.008130712417267146, -0.009457205451355859, -0.0018726177143849215, 0.0025180332887402472, -0.006979821335343323, 0.0006698553143522991, -0.000137526376193691, -0.00018561144907648, -0.007849180106894336, -0.016222803770323205, 0.00038706396948255255, -0.0020830269478551208, -0.0033906411463363044, -0.006852362900139673, 0.014098674780895845, -0.0011180308592810455, -0.0010026567831011432, -0.004456769135155042, 0.008535838595962087, 0.009631081098432677, -0.0031805942244513387, -0.005805838882201606, 0.0028282357201331377, -0.009146026371718626, 0.011854173762499509, 0.032009996800963725, -0.0055710266823772205, 0.00923687363457787, 0.0049131851952377995, -0.009453315929137127, -0.00025236447978637137, -0.016766070645742984, 0.008574584298083804, 0.0028899203079669634, 0.0013974923929909102, -0.006249721190660665, 0.0006529458418360198, -0.0015636701205759887, -0.016058770951876408, 0.004520019964682339, -0.016039410999647792, -0.006629181176092714, 0.016852907231261226, -0.010699328708083457, 0.004043345738024963, -0.001002890609044634, 0.0034568972574691914, 0.007018949973861297, -0.001731561087506799, -0.015652492903425193, 0.015704063845182997, -0.009020436754985013, -0.0033266897460884123, -0.014422570737144586, 0.01338733076866272, -0.004346840099921155, 0.0054311702023238095, -0.003803964072804946, 0.010760784345836763, 0.002075612532600301, 0.005036464528099426, 0.0037893873104508057, 0.014199972280445984, 0.008173352442251189, 0.008087253343921921, 0.004016569918564472, 0.011003073011592023, -0.008414394431722493, 0.009125974316989057, 0.0032468532031890446, 0.004681010572569318, 0.00984032002071524, 0.009706120542138558, 0.00021837369708410838, 0.01805756928536235, 0.0014445921900955116, 0.00994342410815686, -0.009867187880973599, -0.0069981734434755955, 0.006809651110404415, 0.0054646377597932175, -0.004523611135197896, 0.00890439845817279, -0.007299663082115454, 0.01566459867118631, 0.0025907273702958896, -0.013459360257247076, 0.012897332720307767, -0.004028515102556534, -0.005485674877259122, -0.009892376219246051, -0.012181008452095056, 0.00501409661056365, -0.013593499881390934, -0.011219717448137271, -0.009676874223559876, -0.016400229286326937, 0.007990882270447197, 0.005994396905267036, -0.007454542712700944, -0.02054253194732194, -0.016490730558022207, 0.011021291170724565, 0.004111825788804581, 0.0036988020595723177, -0.0017201764631294204, -0.008349457343076584, -0.03148731462005819, -0.0009745205497011231, 0.010203716999600685, 0.004612279560863171, -0.00934341036951881, -0.009439812859475444, -0.008567761441750877, 0.00462782867782562, -0.01515250883702757, -0.011539320271607765, -0.0009777624632479251, 0.01630567141750516, 0.008715681122905905, -0.014148795797188122, -0.002700707501744947, -0.01050055717956436, 0.022781026473377427, 0.0018424399455892547, -0.006231658762272806, 0.010109631173984609, -0.0002303402059623765, 0.01978236794598304, -0.020226214207797445, -0.00040436638532221383, 0.010118038628665931, 0.013118113123905827, -0.0030424591831074346, 0.014920819030298753, -0.011467894560125522, -0.002226692703966763, -7.691677078286625e-05, 0.0017619327632513722, 0.01784046665207289, 0.0021856346449474727, -0.019419351329219164, -0.016152592250493397, -0.0006920118299428068, 0.009828961884229968, -0.011834959558792114, -0.015262220931241901, -0.0033398073583313912, 0.0074087992028377915, 0.0029351409091246516, -0.0237220488580725, -0.018413858546088548, 0.004452037073721443, 0.0025443185804398085, 0.009901251561251705, 0.0018488756809750912, 0.01138652711264458, -0.012298593319016761, 0.012406477469111976, 0.015689793516104462, -0.002928989235757684, -0.007934433456481985, -0.0005689149523778575, 0.02375899047888545, 0.006900269384694935, 0.007369618609567825, 0.0025731505230267232, 0.0003308939778630671, -0.0015866612121867773, -0.004340150461224081, -0.011585438344208426, -0.004737484053011467, 0.007198155203928492, -0.006231154374058441, -0.0025444249756843, 0.0004924625425961771, 0.006749905119321453, -0.01288446246662498, -0.001984159670657107, 0.0045839532114618515, -0.010051634453324987, 0.0005022507494416985, -0.013861513022581397, -0.0021490486490119438, -2.2852126951439064e-05, -2.679025302908958e-05, -0.010363734958053842, -0.010111149133305635, 0.006376797711092167, -0.0029495829227776213, -0.0010435447109381996, 0.00527806290923125, -0.00175449509258449, -0.00438352334011773, 0.0009304486747306201, -0.005521576885117699, 0.008894656592901737, -0.012905838959456165, 0.0005174956122909335, 0.005704272478243684, -0.008833530541648886, 0.009919600170456802, -0.0008943631511140567, -0.00783386759688478, 0.0031798322772780656, 0.008982346675129664, 0.003718238903095238, 0.01016394850528798, 0.002228976479942152, 0.01803848174434043, 0.005463487908277987, 0.011437510501548257, -0.011929262182753846, -0.016420653461552488, -0.013968195354424515, 0.006511453656077505, 0.0007263616944997859, 0.015070716738619079, 0.010935667332904037, 0.0007825915505249651, 0.005979164012962964, -0.007413545467265404, 0.013049081809491634, -0.006446876117764683, 0.0008140591520547452, 0.008531717503438155, -0.011399977139698217, 0.005760143717399982, -0.010210428983644158, -0.000836812561564156, 0.017387223418353574, 0.0032410341979242524, 0.0036388936779292126, -0.0069362039263141636, -0.0024051493898872016, -0.0014631461577848295, 0.010031881620921357, 0.005811777718663566, -0.01527980434702696, -0.008125785037844134, 0.010664385502427345, -0.004951784667646826, 0.006248452531863109, -0.006635130843550978, 0.001917744892445592, -0.020995355923702573, 0.007352863545464832, 0.013271377131645664, -0.009211125253381913, -0.004080116890734609, -0.005017424068898582, -0.002495908436706499, 0.006348342257845596, 0.00791063435285154, 0.00951930325339523, 0.01948911187188833, -0.005504663764333752, 0.008843251129572195, 0.007150136915954445, -0.005986799028199632, 0.00040801099053273065, 0.01613589790872578, -0.0025091625015157795, 0.0099693718689011, -0.01111214111582746, 0.005244025669316124, 0.0004903550573386755, 0.018283491115975544, 0.007640100526729651, -0.0024009952621970847, -0.004998162177868545, 0.004798411925288575, -0.0017591197872008236, 0.014038053140032748, 0.004280760225464626, -0.010487796547790054, 0.012133219864606347, -0.0030437481319171675, 0.009158672210135565, -0.005187748325347428, 0.0016086099758187294, -0.0033874389615054954, -0.013390468561357104, 0.003465233943933193, -0.007521421683763988, -0.012441529489124203, -0.006376430190991181, -0.0019804426521757915, -0.012311803747056824, -0.003279762981506307, -0.009869163882963529, 0.00011816106704269102, -0.013904969471234629, 0.0021507867618786552, 0.0036853835815585413, 0.018091504937030007, -0.004712473553816344, 0.017427417429902184, -0.004503384348749866, -0.018956735418802335, 0.006017775835143219, 0.002273957638355182, -0.013813898846701433, -0.005422711956369796, 0.0017360334039756137, -0.003158749953071833, 0.0026043412933896928, -0.00772889646027809, 0.009920411041478486, -0.009901640428858171, -0.0027615556596942933, -0.0014280062460694802, -0.0031606145582942584, -0.0239819687605219, -0.0058980505395249015, -0.004376970658021948, -0.0011148602875148447, 0.002371620577797498, -0.005078407294896831, 0.0013642796848751246, -0.0029114290875427934, -0.014006358456137869, -0.007337921907239899, -0.001043570625488452, 0.013132067194499919, -0.014925022989926021, -0.0037703082346181673, 0.004772869471853344, -0.011491713218188338, 0.005219048861142407, -0.00723672095253512, -0.0021757282469779065, 0.004394391541997894, 0.005793516654711264, 0.0012774192756061355, -0.0044790935965650265, 0.016162291398594344, -0.001431172331805425, -0.009366046522697949, 0.00787439918500119, 0.007835597143073667, 0.001093159363073971, -0.012444407945855645, 0.003536148058803405, -0.0012851668338652335, 0.007496749399654768, -0.009780873893928147, -0.0016143072855422695, -0.003565401635408228, -0.001063623005181875, -0.005886871345533926, 0.004658211006558267, 0.004173130633927593, 0.0015901807905027991, -0.009049043725969725, 0.00761457191323892, -0.004421381609775685, 0.003162766976391456, 0.009450845947475032, 0.009369203348431028, 0.010145558305952885, 0.019231139320910588, -0.007784469741491675, -0.00022623678503340473, 0.010348594144664056, 0.006933737325154567, -0.002164810739304881, -0.009033787733627353, -0.006467556904360103, 0.0003497379531398974, -0.006222599671511755, -0.000994005443546095, -0.00897963047568113, 0.009595075909693614, -0.0022948587566673177, 0.0010338211824943914, -0.01996734197791815, -0.008547030852405756, -0.010553441590093951, -0.00931058234349267, -0.021682505677921373, -0.009439083705488415, -0.01189459123795467, -0.0019680662161702797, -0.002317788454493606, 0.01564673372634012, -0.011854568251493752, -0.00797387871525225, 0.012359574682401805, 0.0184532947330729, 0.002781243537539899, 0.01386553157261015, 0.0052626301820439215, 0.006037218588662332, -0.006076419930808479, 0.009851908413443694, -0.005217771354686695, -0.0024859825426757523, -0.012466454231771066, 0.009720166770561737, 0.007293908887498845, 0.0004474066746377041, 0.0028633385786724906, 0.010002079141818191, -0.014442868016140932, -0.012865859065708548, 0.00832203471110002, 0.0012948628954516505, -0.00937898045499042, 0.00993361150529241, -0.007753986219187991, -0.011284051255297606, 0.005712184809973621, -0.004728815472442848, 0.010558302278778844, 0.0005387683556077142, 0.005278773186177364, 0.009017355492211106, 0.012814245695438183, 0.00444428000202431, -0.0005020976439664705, 0.0280606250896409, -0.011838996464522794, 0.023596772640570703, -0.009388713715068364, -0.007118070067036694, -0.0001168288322671031, 0.001362107674940437, -0.0006616537698064238, -0.017015361217626073, 0.004425911061992368, 0.008869186378973562, 0.017612868133855673, -0.011273741734037815, 0.01575650848140109, 0.007035011845727621, -0.0015738957543176737, -0.0034180426079541064, 0.020566196515906333, 0.004551349593729643, -0.0069664039127947264, -0.0029696491785922395, 0.011883484224569668, -0.010895922936441324, -0.014179141663219562, 0.0075552819909637005, 0.001196356841978622, 0.019667535499108255, 0.013280710657793102, 0.020490081129111447, 0.01493195128840947, -0.008095732744829557, -0.003285410950847829, 0.006499551797135455, 0.0035195227629462064, -0.001725848792061227, 0.0019722630194580096, -0.02319471878767974, 0.007067768888248445, 0.005748899961392408, 0.009250589618370842, 0.015884425073200308, -0.016275979449075155, 0.01510442272698436, 0.001322720939153532, 0.020643665517972972, 0.005705787395000864, 0.00040229880179223215, 0.0006176386841386485, -0.008165794283547892, 0.005924619619362496, -0.015428281076244343, -0.0030546927375167334, -0.003976827521738578, 0.012232019944696767, -0.00624587327653749, 0.007926038103855195, -0.008978493811850298, 0.0290437865772425, 0.0010917227835710226, -0.023148414607145337, 0.004869596043840677, 0.006980446221478279, -0.006343043416130144, 0.017676485626591822, -0.004301459376834952, 3.8490956687296466e-05, -0.008908221839561529, 0.006742269829113385, 0.01127769522319005, -0.01788657153825687, 0.005915887282577108, -0.0025730345253565092, -0.005521787407945489, -5.2239713319962904e-05, -0.012741636323129506, 0.0012697259862605673, -0.009141875418338411, -0.004252781909087354, -0.0008837884644484129, -0.00549535576661714, 0.0033541446515057602, 0.00319962679005502, 0.012464176201048479, 0.002830213707992312, 0.008970494811968547, 0.007431105836889873, -0.006368243104965855, -0.027891554928682494, -0.00620619458201085, 0.007466642117622238, 0.011822909883370085, 0.007848997855071267, -0.0044037010071895, 0.016081250013596404, -0.001738451778219463, 0.0031170172399968463, 0.0021234952974723805, 0.003661119762749084, -0.011104097137428987, -0.002640406130563457, -0.002736579000987118, 0.003437188541203497, -0.012917898041257089, -0.003891336222923512, 0.007047132165974342, -0.0005031192322100808, -0.028810127166518835, 0.004446068817586169, 0.0055908158626697055, 1.864703501171954e-05, 0.002864773792518502, -0.010332815931095885, 0.0071309226126965546, 0.012462830629496345, 0.006202127183458541, 0.004775314149629562, 0.009420206565216969, -0.0010251914764027863, 0.00456052759312315, -0.0012623455856108365, 0.01023672966240718, -0.005695305682715261, -0.0011828083671726107, 0.02216957145999427, 0.0036949826440094663, -0.00982425326169557, 0.00823022129274639, 0.004709847908467442, -0.024857104747408966, -0.0022322480896791123, 0.0030724775268156897, -0.01780078832994791, -0.01592517550045086, 0.006740906625158902, 0.018740278674456552, 0.005180774198555478, -0.005744286585147737, 0.0017731672965318193, 0.008362824248314804, 0.007827504974498791, -0.01581082572464452, 0.0017610253633740386, 0.0006448453590920644, 0.008964050399152766, 0.013202540462320115, 0.010693617932587935, -0.011660417156587029, -0.01567169909093403, 0.010943539046840471, 0.001053203258416257, -0.01736747693639314, -0.01680178883342156, -0.008449102777036555, 0.017600939743475173, -0.008986052372730207, 0.0038850492286894916, 0.003542085520687317, 0.015791814581633857, 0.00568514650290391, 0.014938261927469072, 0.0008853498086724957, 0.0004935117987221188, -0.007735143399339429, 0.015543092220356977, 0.0030163034842762017, -0.0006575758764846653, -0.005915221171261365, -0.014774225567590804, 0.011713914230657525, -0.01570240806289334, 0.027069223574957765, 0.0034836728436576834, -0.026183571414397578, 0.009390502013950648, 0.009100456764193817, -0.004176948311208031, 0.015939265094553637, -0.001547868213647806, 0.010775887502119918, 0.012215301931547297, 0.0017952161607973566, 0.006047405231932313, 0.0018934531318114507, -0.0023384073090089606, -0.01243163925955955, 0.009813894426934386, 0.007644099368314867, 0.003498567647552944, -0.0023538366477922285, -0.0101541215322697, -0.024000198553998868, -0.011213932892181406, -0.00908869002593386, 0.008724264471447257, -0.005821417205735788, 0.004597857549942527, 0.0034786567594224144, 0.004203006582794555, 0.0027471975728753416, 0.004847732364064875, -0.005733552027931212, 0.010674707084849197, -0.011365661428480141, -0.005797700308060819, 0.013535215846166227, 0.007239747743588019, -0.009967992566644667, 0.006945722620827538, 0.0041595688610248545, 0.011122847214387322, 0.014669639462696248, -0.016524922539146246, -0.014524444546735465, -0.005221003600127145, -0.0036446223914083703, -0.0004966571726553077, 0.007520435026043153, -0.008630517456806071, -0.0033762583280221225, -0.011345557092405827, -0.00019031899068096486, 0.004149981523330347, 0.014421776887077018, 0.011952099347653173, -0.015208910173170604, -0.011361911701092095, 0.0043182480722676695, -0.003730779600455223, -0.0033951852082605284, -0.005840596744647148, 0.012510432109702313, -0.0200564055348442, -0.010755465211314607, 0.001300613082513335, -0.01078779072313544, -0.0028049812226518533, 0.0048628397376732505, 0.004226140459593126, 0.01422554361910182, -0.0048200376913885845, 0.011867195008352134, -0.002416764038219601, -0.017553819636431673, 0.009841325859080844, 0.005756142641295353, -0.009872775859396067, 0.013470323090642332, 0.017457208269938032, 0.0062640462138495055, -0.005253191417270299, -0.0035141372358907697, -0.014361203761883788, 0.0037937961827496625, -0.009433044813558446, -0.0007780856591079482, -0.004625289590562203, 0.015913301029249247, -0.0046676660657008, -0.013000792985109833, -0.001359274509622018, 0.007624072298965687, 0.006309314999384773, 0.002913710374701073, 0.011504505995375355, 0.0077018692699532135, 0.0024515268389288746, 0.003000721162255128, 0.005108219733380346, -0.0069522774762413395, -0.005959454646226334, 0.007857246481166256, -0.0042163325413344, -0.004079228597613459, -0.011766480594290897, 0.0015487771041327036, 0.004407880852099476, 0.0021998755940674628, -0.005005826573519543, 0.0017950856032189952, -0.002425538632264344, 0.010463624848202817, 0.0014268671491446856, -0.006052792547824992, 0.005940835661977919, 0.006407351281871668, -0.0034353650275399826, -0.00684518113720904, -0.003295146146508755, 0.006850576580219957, -0.0033806931090864744, -0.004546413664179303, -0.01496715202717083, 0.013300024324816324, -0.0019215319100095093, -0.0069683968678466894, 0.004363018833263463, -0.0014198302285927432, 0.00018386197481643678, -0.00835922904241393, -0.004399955175324561, -0.002596364701633081, 0.002226066583679651, 0.013450535454977427, -0.024139173980280364, -0.0026760681607291194, 0.013237764603245116, -0.007649500936913558, 0.004423283472745893, 0.0037592121273999713, -0.006517144537379843, 0.006574914920132865, 0.008675123221746617, 0.008835584265344266, -0.006035992964587052, -0.009312068705021324, 0.0009922493800549213, -0.005717900330030787, -0.01971228088888478, -0.0062411337905289065, -0.00039657651102522246, -0.011654356929635217, -0.001539853252015259, -0.003039409491241794, 0.011459737230264375, -0.01505008260304949, -0.004624753136757181, 0.0007791558288006131, -0.02089333577548032, -0.015640131587720353, -0.00031293341312154413, 0.007502436889615934, 0.000543625213967497, 0.0020425382962448797, 0.011384546989205373, -0.00015657598613462505, -0.0017791721782564067, -0.0008857108854895581, 0.005416569701677717, 0.0020360441287123653, -0.012129735707071465, 0.009472492580170659, 0.0031202265860304362, -0.0033763720174834885, 0.005292469170703842, -0.00714387146432002, -0.008043457783785712, -0.01752064681818419, 0.001435202129080525, 0.003845103922215432, 0.007538715184077867, -0.0101631124013222, 0.0031614958237693785, -0.007011999110329528, 0.004135889576309718, -0.002756455006301998, -0.00192196587124486, -6.296526861668519e-05, -0.015955782462217256, -0.0005340334266239202, -0.014262734779969338, -0.015629426537064787, 0.006042340928645419, 0.009085736888969465, 0.010689850303344121, 0.008858383646798255, -0.0151422340138211, -0.0038899303914791674, 0.0013615062034258, 0.006709138588386708, -0.0010561478997664425, 0.0083597294182614, 0.012296084216647992, 0.008966835981684788, -0.0008225356002672681, 0.0009350882279114993, -0.004251754058372025, 0.0030178090811491523, 0.005996258159100876, -0.001388232100264786, -0.0040225794507474785, -0.0036896176993136986, 0.00892302914506787, -0.004810341906955331, -0.019434282121153924, 0.009007048148053561, -0.006665391917980093, -0.013196708556741597, 0.01381343382539449, 0.01348059614648544, 0.0076528676624111995, 0.010576415561567586, 0.014760823204022583, -0.0011593746361500293, -0.00776788200912464, 2.493127605423986e-05, 0.022775890308394078, 0.0012616030495350447, 0.004197278394296173, -0.00545018202078933, 0.007031039104669979, 0.003517847533649926, -0.004954279081130569, -0.007269898198476101, 0.006947847261297107, 0.006949116546621661, -0.0035671165617888194, -0.013218484536315495, -0.013314858086535741, -0.008316526399721485, 0.005149827179834677, -0.012909927475026613, -0.004948974135307005, -0.006685805427871637, 0.00019653863962004764, -0.0038407755398515786, 0.019357112491346827, -0.0043527580068204105, 0.026863183556546783, 0.0028838116714397636, -0.007792083681925852, -0.0021152191569935213, 0.01324330207308527, 0.0025631892746007245, -0.015458581906305216, -0.0015430291435887592, -0.007549809764979537, -0.0048630710400198495, 0.002971862311268902, 0.0030759922221976, 0.009623548559756036, -0.0002956127362352734, -0.003728607330918181, -0.000761111572189136, -0.005159738495116483, -0.001891652246385965, -0.012219107339814239, 0.0203147457899339, 0.0029301509091744413, 0.0052863968493224505, -0.012857179332810395, 0.01543241112473492, -0.003421128647832304, 9.800493092948357e-05, 0.002232334040798257, -0.007776758795316897, -0.014866461445547199, -0.00815507180820783, -0.013611252160970809, -0.012113883524735126, -0.008124246789316225, 0.005818674417592436, -0.006759530091054826, -0.005033575516252038, 0.0012990660352383235, 0.018757618329577997, -0.006261739097137836, -0.0030129432987858994, 0.0010721053770747174, 0.0022704284582474384, 0.0030758616570527044, 0.00677870166175199, -0.0011077493223444314, -0.0012113467485490648, 0.008440630178175972, -0.02334268464540284, -0.014521914211163436, 0.0025706026190822026, 0.00525610185890562, -0.003841746588454693, 0.019179042052220957, -0.006814487208827531, 0.014855920857062553, -0.01379251808010666, -0.0033829962509846936, 0.00148511592126889, -0.0269269203672237, -0.0015269440597099019, 0.004042094507072036, 0.006218702935885469, -0.017918761051337814, -0.008272877019189613, -0.003997790814031039, -0.001259676450496908, 0.01747092071935205, 0.01789796088703186, -0.004766035852078903, -0.012415570735996577, -0.01127548036652679, -0.0003470509005588751, -0.0070234328927152555, -0.0072979932442547085, 0.010528603071144452, -0.00019699192367962097, 0.010161126705736045, -0.0022276191007426405, 0.009464186766565267, 0.0010684424895787438, 0.0004856343395719125, 0.0023094391235449845, 0.018119329970707334, 0.0030696455017616077, 0.001660779359172116, 0.00609779782979237, 0.0014339977068370032, -0.014752925635049664, -0.009295319858523672, -0.0029305015287559226, -0.010321145578718249, 0.008687221795730277, -0.006059512773422601, -0.017403327692233562, -0.01462033818620209, -0.001076720456306261, -0.010033577025386707, -0.0025462395652508804, 0.017798535414938994, -0.009174724275256075, -0.01607791574739202, 0.0013449359352301436, 0.0017823016801067745, 0.004564042507202303, 0.0018213943739638122, -0.016515354995740583, -0.010271145461528049, 0.0035260609977874613, 0.019168497854482845, 0.023798260829842918, 0.007676778712478448, -0.0033332737081660144, 0.0018340711737275977, 0.003531538475528583, 0.008897977880712863, -0.0015131286570106849, -0.011457587102030983, -0.011587310127253024, 0.012901930912060456, -0.011262633813915434, 0.005353652862413223, -0.009721843507710649, -0.010957323334620933, 0.0025198511439875476, 0.011671910182301733, 0.005663435438238714, -0.0025522506147490315, 0.008629916234355993, 0.004687113478768362, 0.0007647812803008321, 0.0008884988587710503, -0.0017285540141084954, 0.006278458814564788, 0.00806401731912016, 0.014272599566494319, 0.004066288654418131, 0.0017070229460011174, -0.008035647385158783, 0.011724208866701651, -0.017233603768115797, -0.008992618535656019, -0.01682198925265583, -0.004439761229889055, -0.006326028641793471, 0.007176110499428782, -0.001780670587341913, 0.0018411139349568159, -0.001409759032131072, -0.012257220129143766, -0.014096328209300346, 0.001258245610283821, 0.01355038810263327, 0.004877331626256109, -0.009492679296566657, 0.009944675638394474, 0.002023077350368197, -0.004204306554054414, 9.754476492860357e-05, -0.013653142872389638, -0.0017519853562272508, -0.0008966405571025185, 0.00907864569547396, 0.002939793304702742, -0.009308183787318371, -0.007817480999016404, 0.005739433890959574, -0.0009207105057062244, -0.007363119582293394, -0.0004347805359921649, -0.001808890156551639, 0.006644941553479123, -0.004084421942630319, -0.012527977962717814, 0.007822130772901397, -0.00518519583025431, 0.0017737888365308315, -0.01375613881514083, -0.0006141920448317797, 0.009277383788295441, -0.012730657944027342, 0.011217747670470951, 0.007315207709336484, -0.0006508940240948761, 0.010004060610412662, 0.0041571943572918995, 0.006985285051420419, 0.015265070482786053, -0.00543969782447056, -0.016614931141134017, 0.007084971647169878, 0.003848706653375173, -0.019502916125423434, 0.001691870947185311, -0.005810493423661045, -0.010702820572876722, -0.006568928358357665, 0.004755674746908726, -0.008612610626011857, -0.01040371668083018, 0.005339362349450819, 0.0098681485785552, -0.002586743895791238, -0.0006248262650324802, 0.007202524251433285, 0.007700156641432515, -0.008183451579692705, 0.0027613983974889692, -0.006369153057852142, 0.0008686752759482557, -0.0009925075864557, -0.0044350731118174115, -0.00482188941163949, 0.00815490842218597, -0.004608988816244066, -0.014266171014663135, 0.007514180170991366, -0.012348591674944523, -0.013918963284080378, 0.010556056850117703, -0.013134907812310801, 0.002396890327723674, -0.0027618762253008903, -0.01879641342020831, 0.005100188106150597, -0.01830147289087964, -0.01514784241827765, 0.004496974238964656, 0.005666086565565216, 0.006568638114335211, -0.012883328906615723, 0.004172751734705836, -0.01444904791497297, -0.01131587069292771, -0.0031016342726911247, -0.009868189496681367, -0.0030170076061367423, 0.004855893083048285, 0.01237317505658044, 0.01474078041780692, -0.003771108450152285, -0.019273868868482043, -0.0157371550207645, -0.0013855366714188421, -0.0002752447974508463, 0.007215235689215158, -0.0014144939245857972, -0.016636498988340236, 0.0017528683493266166, 0.00224064076161701, -0.0037186494762259333, 0.004014548731080788, 0.016875735038815953, 0.007727891659737978, -0.013018836266909056, -0.012408358899852576, 0.0032140295537569983, -0.003165009529468273, 0.01085263888559354, -0.0006315693769958602, -0.01692493354572014, 0.001603964893620469, 0.022701085246964337, 0.012328762709327768, -0.014431555195226582, 0.006519669757720659, -0.00858019026313203, -0.0009412428891997101, 0.018697490800983423, 0.004279288502987505, 0.013503983619100698, -0.005147482066932952, 0.007017162563844677, 0.0008939572743384388, 0.0137531046322702, -0.0036098818469333894, -0.018881123734009127, -0.012278111063380366, 0.0020762140945780583, -0.010652597649919115, 0.0161989074568554, 0.004778498401641216, 0.01036362015008599, 0.014751201917664738, 0.015918851579074078, -0.005758744322167899, 0.01425946925398171, -0.021981362560997787, 0.009154532425995919, 0.011747387280282318, 0.01436383544548844, 0.005610870713471901, -0.006872353598417373, 0.0006518230802951142, -0.015853244143009797, 0.002306667391838387, 0.013239640628523777, 0.009522947398436772, 0.02483766268801374, -0.007108908442527698, -0.003400615752033001, -0.008151599754413775, -0.0023858338290564146, 0.017009974016929524, 0.01392973036941157, 0.0073990474763248335, -0.00584177558351764, -4.160180450738833e-05, 0.003607925917766201, -0.012211913608645009, 0.004451799080585275, -0.01009304868492367, 0.011629404496260874, 0.006772364622026718, -0.0009670538946509501, 0.003118694930055492, -0.0006624426217223622, -0.01000294868628929, 0.005857582651828418, -0.02121458962079925, 0.018615871182805013, 0.010972778584808801, -0.01358792939915611, -0.010789387788535216, 0.00046562485295427463, -0.00486678718023472, 0.002246825514747982, 0.01558982953922309, -0.002186368185496603, -0.0030884519188567865, -0.0001937892378854998, 0.011213450374848315, 0.0003230718842341069, 0.010365747886784911, -0.012272702263941207, -0.011480719642824523, -0.012622402105200497, 0.009953676788792307, 0.004212308911092904, 0.01613848457531169, 0.009841432719821065, 0.0001662083935971053, 0.022892608267027, 0.00773024155984601, 0.00895059705198528, 0.0007459870602045871, 0.02201137036970757, 0.005188655976982282, 0.00484138878623805, 0.010791102424689407, -0.004579977186158211, -0.012235185651553083, 0.006926532146231562, -0.0019071965469952656, 0.01995419833003025, -0.008836108711844811, -0.008604766182834303, -0.0004261275050266087, -0.012128189621044741, 0.012151662371298829, -0.0028884181026603466, 0.016406508836530012, 0.0017231847029748142, 0.03080529288731124, 0.008488849956849924, 0.003739034544009644, -0.010219637552018478, 0.009200037208262452, 0.007385238051221866, -0.0070853454042112156, 0.004158356928961725, -0.005736329928712162, 0.007736627265376622, 0.010108299638974097, 0.024500816712577117, 0.00795723389531832, 0.008131041042080763, -0.017614344238533072, -0.01921109770093741, 0.015310743211820091, -0.006274015102464982, -0.004809969036693914, 0.0032718368976088967, 0.010079756568684796, -0.009117739949498911, 0.011621341087072069, -0.0037041963323003776, 0.009883353887319271, -0.020806260580590947, 0.016011516042361618, -0.017455542767287023, -0.00227321242795736, 4.5784916928384275e-05, -0.00851815628880964, -0.005367159767673617, 0.002592873160337505, 0.000670017912579469, -0.003687698312476289, 0.0004834563851643287, -0.011650678076364081, 0.01226286509896151, -0.00851879869521118, 0.005958126592384678, 0.0012364237977625912, 0.001967225486459187, 0.010740431364794406, -0.0003885206368961477, 0.002442716568381631, -0.007479262450851031, 0.0017263207579592732, -0.008534363939964729, -0.0010668740281338687, -0.009703125310731421, 0.0012988822528493264, 0.0047653700662530375, -0.009548118423750175, -0.022909136304509577, 0.0038552289971080407, -0.007362624684922417, -0.0009745857139699004, 0.01716658809666714, 0.003162911122687967, -0.013557328709629272, -0.004664146453054783, 0.011699948973779923, -0.006594571364624181, 0.002871879775171292, -0.017135988615860805, -0.0020072325682475266, 0.010576035357025558, 0.010982451684140715, -0.013436595806246433, 0.00404613592776766, -0.026735879338064712, -0.002417638732574043, 0.011947573735054253, 0.01323728018610472, 0.0011786184817954926, -0.019279587254155805, -0.011701521927398085, -0.004504517591931725, -0.01950294726474132, -0.0007043963083527907, 0.018847155654099022, -0.004959944666985448, -0.016086646691089057, -0.0063558933817915225, -0.010136338051912117, -0.006175274226122187, -0.021007143027015042, -0.0026241808624737177, -0.0007822653019642377, -0.00510755907488206, -0.002400637734899435, -0.003133615670064765, -0.003140700228770508, -0.004518848252386379, -0.005119825082048422, -0.010723301777757393, 0.012142001934890382, -0.00347595775932175, -0.011386442029416202, -0.001633120206222694, -0.010323997349309666, 0.0013413169717794893, -0.007447429687108028, -0.006975239495101583, -0.010444982702676655, -0.0066853833471274505, -0.007679705204884142, 0.0024488437700502927, 0.01214864862658555, 0.0043060004760801, -0.004904372181475314, 0.013732116597434786, -0.002320240758994404, -0.0014428338457835022, -0.010522446990852702, -0.014460232665800783, 0.010692186084464338, 0.005322611940834438, 0.009890122619423302, -0.007813624642809387, -0.0035510070476917305, -0.011299234406069052, 0.005515160053602404, -0.011642356596744311, 0.0033044809961178586, 0.02322232817867578, 0.0010147363441085624, -0.004581462612802645, 0.003620640788517809, 0.006953308564171042, -0.005648720910078653, -0.007177573493965921, 0.008213019187798619, 0.008739650960957761, 0.01660575794918387, 0.006015245713153912, 0.002677959829794404, -0.005841819231894144, -0.004983630220832279, -0.01445929724694532, -0.017276973302010588, 0.005093267249316171, -0.008968712563247303, 0.00585332055185129, -0.0001677624290998444, 0.006609885927316162, 0.012041929229548087, 0.013427835703745929, 0.0010671050804925359, 0.01404196324723785, 0.004147703578080638, 0.007841288357217195, -0.0027843595753408853, 0.013240448566635213, -0.015686119286482756, 0.01278766274464966, 7.606080580857397e-06, -0.007941073191737785, 0.00524910596551375, -0.009091280852467208, 0.009535126744438594, 0.002982399451769033, -0.0061963124021525194, -0.006920029436522934, 0.005868211007480225, 0.004117775921019903, 0.003336386942898576, 0.01168763327880546, -0.012139458462601277, 0.016062614102320287, -0.0006710904287705131, -0.006004623417760612, -0.002008735415964556, -0.009870465142328184, 0.00585030005420747, 0.0013110357362219965, -0.002862718760999318, -0.008523479601182287, 0.0010793165280576793, -0.0013288372310527533, 0.0028485282451463155, -0.015741117317386845, 0.021362067812769617, 0.006651033314667614, 0.005134087492979364, 0.026672650539631866, 0.003261423120127406, 0.008776163851776422, 0.007897552476705923, -0.007046110128660243, 0.013310286866223087, 0.0016755032060175366, -0.002247552408292908, 0.0001450474380267609, 0.015178076634384124, 0.0014434157032192215, 0.013485488267316601, -0.0024915357967994845, 0.013993247955845216, -0.005054301658941829, 0.007690319802124588, -0.011426267418837711, 0.003856925319673205, -0.011502715809774652, -0.009258972181103262, 0.0010528413061551807, -0.004769945887151305, 0.004594233830921873, -0.008914867445240051, 0.018380789657593367, 0.0012131203258978574, 0.005138131541586641, -0.00412346224489051, -0.008126942433972884, -0.017867140436309863, 0.008947095082172797, 0.006866538983124244, -0.008287050128866697, -0.0006892874197246501, -0.012554120535620052, 0.014513725708902433, -0.007318021844391975, 0.005222122572748243, -0.0003341055436791906, 0.0018639832629726938, -0.007245660926339507, -0.01771919458522055, 0.022736965820973815, 0.00532305547796925, -0.006676196170314509, -0.0031267985780994824, -0.000263193376169972, -0.010289219433666433, 0.0054280512264983285, -0.013097614498315204, 0.014667693484779174, 0.012171567726218253, 0.0007481094093848365, -0.016858443814050838, 0.006266337237157759, 0.001232466099290734, -0.0010234727250129777, -0.014399704970632905, -0.016075889687848927, 0.009904878987426504, 0.026805936822273464, 0.011574697412108273, -0.011157988863905958, -0.0074056091402739405, -0.01054909318356379, 0.003967719852117722, 0.0056794265982519155, 0.00046314513489849253, 0.00524668671539657, 0.0064473813274486995, 0.0007583749998620186, 0.0005400263922347915, -0.004114381043432256, -0.0034249187283657704, -0.006419877966308873, -0.011017732693066296, 0.0006925245100337654, 0.013735584211908076, -0.012049315649807928, -0.0020616550959729417, 0.006329276535498407, 0.007612302540224313, 0.0033666612498665523, 0.0003095224310582585, -0.005900235012982512, 0.0015508100763390994, 0.000702946072330738, -0.006146042322007335, 0.002044950401097329, -0.015088121318207215, 0.013944195922918453, 0.01857281580882609, 0.0034778039729291333, 0.00911999377131291, -0.01061776013505789, -0.002883830296113076, -0.0003988247367643672, 0.0010292694874410597, 0.01525846917768009, 0.005700947169140509, -0.00903650466482743, -0.003039277242532519, -0.01016278303737374, 0.004830188351920784, 0.0004500666746690586, 0.010859770379547664, -0.001952080470649034, -0.004724164655300723, -0.010352244885428026, 0.01263477681363371, -0.003649774848275643, 0.00017137612131763833, 0.005048209965722261, 0.010713165740600454, 0.007861007975029236, -0.0005377949039944888, 0.011515178874896998, 0.0012258326522574636, -0.003451034341038869, 0.003819646538490373, -0.008513901038854212, -0.00723669370774605, 0.0022381278913500297, 0.010902443683434572, 0.01096475169339525, 0.006790493568987186, 0.001722617679083016, 0.01491045455449032, 0.0059893635785325085, 0.006653573625648268, 0.010194254687911214, 0.0036189941926417107, -0.00395704797798625, -0.015198459102862511, -0.010777401021390793, 0.011586707897614902, 0.00019888391091100696, 0.006341006821993846, 0.0020256234024568737, -0.013581128402341653, -0.012627185133828047, -0.005683690893392187, -0.012070421434899468, -0.017316204119943567, 0.0012402572790486195, -0.009887947728130295, 0.014616213679068303, 0.016459073435016274, -0.008530571493155902, 0.012860827931826725, 0.011638277778977576, -0.005731943994156603, 0.004716094495813742, -0.012206536427032656, -0.0020292300725660998, -0.013554984708475593, 0.005424929806935864, -0.020570954917890644, -0.014316037775479457, -0.005287578580927464, 0.009213707715811531, -0.018822862508569595, -0.0004835972981617211, -0.00045778450083576656, 0.013517385731966935, -0.005507504272536019, -0.008199707544772374, 0.010031030643678147, -0.006539045562665655, -0.010476139195701544, 0.011242195694231103, -0.002343202135665228, 0.004473308095603854, 0.024643849482330935, 0.005009613272040274, -0.00282580362951628, 0.004985910865881618, 0.01801976072152034, 0.00425883876299061, -0.008404596006600089, 0.005359489898465267, 0.002132364420007781, 0.001424983814717564, 0.004307941236616465, 0.0044626387033056365, 0.001045291009860499, -0.009894196639032116, -0.006513026082092535, 0.017377531594347354, -0.00394379804252962, -0.007086674769503729, 0.005002176336297414, -0.0008966952833257061, 0.005016944777935074, 0.008155900635036082, -0.0018336196477334312, -0.0029050315254117985, 0.009438697985551303, 0.008164376139496268, -0.02287932698743593, 0.005599150239230454, -0.017010450118182356, -0.0035478592868918098, -0.017081356392661118, -0.004895041185036226, 0.010936909421084523, -0.01666050028199211, 0.006455132078733102, 0.0072084323100576895, 0.017214682582893943, -0.00699384331636326, 0.00546591439325365, -0.003287870006250188, -0.010298459244965702, -0.00013563873200597563, -0.0014361010043328533, -0.010144877488673688, 0.018002734574074, -0.00030023738052141686, -0.007593951571411872, -0.003605879221101499, -0.008452980056263236, -0.007009888677544883, 0.006559137571714713, 0.001554778819384401, 0.002143161642083291, 0.012938453948318503, 0.0018711277172568713, -0.017146708545379506, 0.003600328262434415, 0.006701946821534229, -0.0006448041420765942, 0.011020294488433991, 0.009149890083547121, -0.016630229638918526, -0.014713084993050168, 0.007394497868376954, -0.0036232790895931125, -0.0046690457819385175, 0.005284578514331022, -0.0024157377106220645, -0.0034179833209307263, -0.01101710508365259, -0.002268062410483428, -0.002378341507613197, -0.0018757731502329002, -0.017137129394385418, 0.0019871783051720986, 0.004001824738067398, 0.008519372902320802, -0.007288626245319786, 0.0014461083464087693, 0.006608731922891396, -0.021973193512305148, -0.006476384710612193, 0.015420170097110147, 0.008201158171393908, 0.009382066375757126, -0.010799293308459888, -0.010514729139666694, 0.0011984905141981543, -0.006882860349237847, -0.007552875393481514, -0.005626596179191114, 0.013226101954646212, 0.0037989494528814192, 0.01801190471539111, -0.01353131470935881, -0.0063184651121765386, 0.0009835039983555989, -0.009096238104158338, -0.01383049158924638, -0.012380791944705899, 0.0061919927204189245, -0.01830900994334398, 0.009123727937383138, -0.007443941175147827, 0.013319966979950942, -0.010538433161764515, -0.004755979432602327, 0.0025158481887328204, 0.013938783108385725, 0.014209885911226287, 0.012384299311316106, -0.004280104465713021, 0.008098611247897203, -0.0076535168339873305, -0.0036697715407583912, 0.0042735137096786445, -0.013409038235197134, -0.028232769577493648, -0.017744402134507023, 0.0013058462653595603, 0.00792781956129137, -0.0052217685044038354, -0.0013071034869842517, -0.0045651795797239225, 0.015541583041313365, 0.014818139100130703, 0.023332890523114585, 0.016346866898447134, -0.015860781908155513, 0.001497527435907904, -0.0018134046977758072, 0.010297914569542587, -0.00046124283251175913, 0.0038445877518905195, 0.0140135451387378, 0.030673296304419936, -0.01550415250098836, -0.0002355379566667325, 0.00011069978918609296, -0.004407589106684772, -0.01542528577008861, 0.025797839228874415, -0.004390518206497035, -0.0026416394524607233, 0.004849898761607277, 0.0025443050036027667, 0.004084311309444374, -0.0028299938885115545, 0.008191246663649154, -0.004271799971981123, -0.010528173065673916, 0.006614637498841976, -0.002650371118471643, -0.0020517392408163125, 0.008881155341890448, 0.0015822225351847842, 0.012371293903057103, -0.0021059573279612206, 0.014920191881403906, -0.0070066224640724425, 0.008793857768356533, -0.0026187571357233533, -0.009579147088279396, 0.00918776090368516, -0.009469089446360632, -0.0020272713715246255, -0.005812956294557729, -0.003530939396590431, -5.638451686287184e-05, 0.003857978952686497, 0.02238576474236578, -0.0018333276931375745, 0.001479444025390868, -0.012832066058176118, 0.01215327712191793, -0.010551967888082882, -0.0018709602568572118, -0.006611751744326373, -0.01316164918118495, 0.008446605484828978, 0.00392461835286068, -0.012387788597133085, -0.0056305723923689936, 0.002147937492728028, 0.0035377872723580434, -0.005306941288877704, 0.005408982027447248, 0.0031955982052987767, 0.007343441347010939, -0.004210061902635503, -0.00028681934406231884, 0.013000791706706398, -0.006009805820034377, -0.012130262575473727, 0.007797510132264928, 0.002822272257301595, 0.0003841568587258298, 0.002768376600154816, -0.00814132550099891, -0.0044950017367936385, -0.01355437053002917, 0.007495408187807683, -0.003331094418794852, -0.0054603809614423736, -0.007964910551573627, -0.0007532690537304858, -0.008820942746414364, -0.010268824240789398, 0.012231885274908308, 0.011626131622856419, 0.0009616881320581039, 0.0009907033064364, -0.016991603718388076, -0.00163645551933517, -0.00014641542312921661, -0.014265154058369138, -0.02000786344811165, 0.007842292837500688, 0.015104811762419713, 0.006143459511701876, -0.02773685465582945, 0.008775620315016913, -0.001863045086040757, 0.0057253431021891685, 0.007370837686562473, -0.0033715705632122125, -0.0006669456035159541, -0.0025064459988027176, 0.00405276908487111, 0.0011641893207928564, -0.0033221686174835243, 0.016840921302662543, 0.001628111269392806, -0.01730345992201862, 0.007683569758799264, -0.010785905148456022, 0.012297331906074058, -0.0032446993495658188, -0.02065400933647484, -0.01611281197530015, 0.009468781578216635, 0.010506638659430363, -0.0017269735800699252, 0.009110897495440156, -0.011112279801135366, 0.011796097722027596, -0.01941896472604589, 0.006752161746489408, 0.004743079247756442, -0.014351681930015096, 0.008057610120255403, -0.0021316543483817013, 0.005787730896170133, -0.018784873988759977, 0.006861396056650596, -0.014418057179891287, -0.00794995937953817, -0.020567944508501884, 0.01027246029981486, 0.010708717557183509, 0.013850907916665182, -0.0017991448215726811, 0.015959670836345537, -0.014595566272170948, -0.00738050311429576, -0.0033651242259335906, 0.01115492504251549, -0.0063358166226547465, -0.006014297410740287, -0.009062758688555862, 0.0029059514268249343, 0.0009940448827256878, -0.005912668339788562, -0.01137038042782636, 0.0013742404478095706, -0.009118209140581252, -0.000911798467515723, -0.013245486812021832, -0.007029526606290416, -0.003100199160637424, 0.004917817616364737, 0.005794901052369364, 0.007668471692897103, 0.004332154311304672, 0.006454191627361658, -0.004285907818796595, -0.004082336146226063, -0.013380621007860976, 0.0014198875612379382, 0.025191453864640216, -0.004044216633539207, 0.002983313174201206, 0.015579641303993065, 0.0031772596619174076, -0.006249837732546481, -0.005321137900043426, 0.008726389139888687, 0.007917965593947519, -0.010562014849269191, 0.01394277863754618, -0.0036488795665844467, 0.014410294773188153, -0.020679934237980813, 0.0022914345903826774, -0.0020291840329919823, 0.022895077250516444, -0.012927971689457701, -0.006334046369720078, -0.011225296848170627, 0.0051273997429092345, -0.0145322531831013, 0.020022720511298078, -0.003267109011627354, 0.0005538124092344287, 0.022164877511800744, -0.000934336499774127, 0.014622589517738547, 0.005036512834754598, -0.012730259278747973, 0.0016801246981779146, 0.017700940252263434, -0.003028299674071588, 0.0038622762444123914, -0.02678910991079814, -0.007750992250808118, -0.009373144124295352, 0.0042843701249612644, 0.011960750157680283, -0.028122311707127506, -0.011799777404720232, -0.010171790864093115, -0.011271521023843881, -0.0033042983883024516, 0.014768226296954685, 0.009160752654973564, -0.009615989889530772, 0.012720076750775352, -0.011846849725363783, -0.010982295098249857, 0.018601755803936998, -0.00016585815344171873, 0.02086282669871666, -0.011772609274767736, 0.001522213733981378, 0.012790364387554692, 0.00904210362795909, -0.0038418346936217136, 0.014936968603853828, 0.0004338521641341922, 0.0013659566252853315, -0.004673740181389568, 0.009500118025214164, -0.00701869828578267, 0.001362099584530666, -0.0005840749166118106, -0.024124667183102678, 0.015179133026284413, -0.003746499081774458, 0.009393669963093211, -0.003849207125324361, 0.011617642013172813, -0.010070201796443919, -0.006534337764386343, -0.010771443310824143, 0.012707220816842692, 0.012747280307594037, -0.005504870895627638, 0.00844032314639286, -0.010611305163998717, -0.013620523744133415, 0.003293382288881311, 0.00704826536375499, -0.0026712329406161648, 0.01377593130883096, -0.0045910701521151166, 0.0015681210598843978, 0.004323496728190505, -0.006651841707079952, -0.016278912468741823, -0.0018131782313189453, -0.0021396382246905796, 0.017241540345129265, 0.005882631410100561, 0.002791209871155374, 0.016591733175491414, -0.002709121901366325, 0.013690674640779776, -0.0062952915793983415, 0.012297528947104557, -0.004249090265760876, 0.0024467875865263346, -0.0044189976249260805, -0.006255788173639487, 0.004438412450836264, 0.011216234294145084, 0.019456427071863635, 0.005356984391059251, 0.013860217888087218, -0.01985392665143497, 0.0015476696124626323, -0.00269388364984985, 0.001566419717709383, -0.0009334761763371368, -0.0029642776492477393, 0.031760098586209234, -0.006079772149142059, 0.005130610770431029, 0.002018326305598953, -0.007221793346076693, 0.005203105082324756, -0.008257096439233724, -0.010629684290955635, -0.000605132170762159, 0.01801471032220029, 0.01092751338764884, 0.004133813818310317, 0.003952829766557149, 0.007024901800565955, 0.0017213155294301525, -0.012062946518330299, 0.007315060236045956, 0.007793471834922998, -0.004562475830092487, 0.007144951932490559, 0.005922275932637361, -0.014811569142542525, -0.00403211198633769, -0.013144766067498826, 0.0013953631624919155, -0.000555851219944513, 6.21024113853311e-05, 0.012737602284654564, 0.007524601166366833, -0.009062086049798445, -0.00852604910148129, -0.01480699677553797, 0.00433243619763412, -0.0059772057130909224, 0.00205861825857956, 0.004404453073124987, -0.014499119404606329, -0.012017471739648958, 0.0007352556004788618, 0.015465441917482446, 0.0006277570344436763, 0.005850336394727387, -0.001285325855812158, 0.01583562373225498, -0.015032637055711583, 0.0033684967566695125, -0.010454297993702113, 0.00609818657757519, 0.008903528990352075, 0.0022351665103277204, -0.001964735748382185, -0.013227679593209904, 0.01069189582458155, 0.002106734306586767, 0.004536261888609835, -0.004932023406956686, -0.0033274839492119365, 0.009818156170928554, 0.005135460168262204, 0.01827847996168884, -0.001551962888615939, 0.020654935865981532, -0.004956431812468601, -0.026254313187535905, 0.002230430425284542, -0.007706856859748424, 0.00016547377489191639, 0.01101282705046809, -0.0059765176459697904, 0.010586210796426696, 0.02492334901587397, -0.010907710191024798, -0.01071216741854641, 0.01695557393739786, 0.010834461513466282, 0.004991002923464179, 0.003759419508380783, -0.01854066728876898, -0.005590729006510559, 0.004239997452775327, -0.0063290146355751975, 0.016729646447679422, -0.021200771832283954, 0.0010229229001309924, 0.02653826920845419, -0.025921660945090998, -0.005269673082903029, 0.022869134324538264, -0.006165887549646844, 0.003455488101773141, -0.00729747203560928, 0.012392414132843983, 0.008037597851433034, 0.03473600513348141, -0.02513148310224607, 0.0047005826524978795, 0.007446232344015407, 0.007820994503730022, 0.00995956389248302, -0.006028056736069822, -0.008704786039709067, -0.01028924521492832, 0.012157276934364764, -0.0034875956449916226, -0.009586609775784636, 0.013043161372546375, 0.0037024927431003503, -0.010281991203270358, -0.014984278417783522, 0.009405361755006246, -0.0043925098942179195, 0.0013722831944291596, 0.0031418093106339445, -0.00010765839459466997, -0.007299763812129333, 0.005335589465023884, 0.020079962489780345, -0.003020734260980735, 0.0055859345794365516, 0.004533753182347954, 0.00652791298525097, -0.000751042219481331, -0.013804168498107701, -0.016925624641872604, 0.011047846104892145, 0.00014286583119657703, -0.006627417011497443, -0.0026081001822031704, 0.005729997489615642, 0.0022032976940069976, 0.0015179978908425624, -0.014651131884373836, -0.006919701585466883, 0.0026994520042853912, -0.0015110702153995547, 0.006866453582324619, -0.003041228568029579, 0.00947110698272816, -0.004682634944450166, -0.0030686130850656654, -0.0033925331802685333, -0.004104645652525427, -0.00011723238787634619, -0.009629135899700327, 0.0004613970154917144, -0.006028646006512538, -0.00944869240178523, -0.010669950913150589, 0.003284023518064649, -0.0012652376030877033, -0.0010900524092189272, 0.01727443987216617, 0.0019816574384861067, -0.013005600106697204, -0.010300590604803888, -0.018382341435654034, 0.02218689892370513, 0.001107307503143257, -0.0024506705406448152, -0.01467810510583691, 0.0135283607624781, 0.008032038877834977, -0.01509233163048743, -0.005938139697769504, 0.02653943301952534, -0.006205858585440252, 0.008036760581608838, -0.015138750572009418, 0.008980338632673161, -0.011654571621594546, -0.002364936142655816, 0.003724585901438403, -0.003464417436099542, -0.0013318033576230756, -0.007932505092964661, 0.0030243724449039574, 0.002151259013678608, -0.005623571806050593, -0.00547369640258414, 0.01633385618890174, -0.003989536739488153, 0.002164946428517673, -0.0015798556238389454, 0.007467911004033685, -0.012866032217398498, 0.0029073091743852353, 0.010860714677469492, 0.008354665592061813, 0.003096837186267635, -0.011491317732102766, -0.00029787619506751887, 0.016536561342368885, -0.016638728962358608, -0.005322016355358112, 0.0036837832124438264, 0.0013298270951063258, 0.013943380728148883, -0.0009881386122481109, 0.0036934421987699913, -0.007459486167109834, 0.011625287455566399, -0.003948965076317108, 0.012625036801237704, -0.0017955755497362095, -0.0034073234742341353, -0.0007859463778371112, -0.00014428793206902954, -0.015326492007623928, 0.0068879972899255175, 0.021760476818419056, -0.0010374822419591757, 6.315480973785682e-05, -0.004343301925270579, 0.0032381893563926266, 0.004580760491209215, -0.012797778577638735, -0.0018144326196987918, 0.015588347037343112, 0.004017028386707417, 0.002505043302247472, 0.0192829238933495, 0.030491928215513636, -0.002136374435297096, -0.0043144899199014704, -0.01358453239089987, -0.000348677418484963, -0.013267028583406776, 0.010193910862821428, 0.007228369586301131, -0.010406659823672977, 0.011359486832221563, 0.003761681994780407, -0.0006373669453517966, 0.00873382449923238, 0.0032093085479574356, 0.0031286369046078346, 0.0102601975467518, 0.00016485124752386397, 0.009273840347069726, 0.008763330815251841, -0.012574927892209311, 0.0006318691014659815, 0.0015492463438955908, -0.009746064384339694, -0.0017182372497363985, 0.020602935410427375, -0.02292000974555338, -0.0028925824925171463, -0.015195875953375347, 0.0028002153627315874, -0.008668258896299384, -6.785957344595807e-05, -0.009584895257146632, -0.004600350969873551, -0.005015187923060841, 0.00809124091086046, -0.017571510350382947, 0.004004056409660617, -0.006521700039472738, 0.012098873208039292, -0.004413742730765314, -0.0037772121539342346, 0.00252309987080591, 0.012177674962733543, 0.010535797108160879, 0.009697187971124335, 0.0039906991739559325, 0.0073401174211294405, 0.004049852569219367, 0.005647678048700395, 0.004862003288548519, -0.0018588306440510767, 0.0013567471405660507, 0.011867897382617933, 0.01568209599140603, 0.004500949619664309, 0.010981860928860061, -0.0022524185847180105, -0.0021799933097910234, -0.006285623372488619, 0.00925213402559106, -0.003035446846995564, -0.0011112176654608896, 0.0037636907165519147, -0.015603576363501341, -0.0028771443706877117, 0.012295514178905434, -0.006248047274869762, 0.00391800674951915, 0.015431098800347974, 0.0089343645864824, 0.004447883321354869, 0.0028326659758202847, -0.010963214821969294, 0.0014747504992708885, 0.0013894833838604057, 0.008572147050306001, -0.015672850753535507, 0.008563230191793012, 0.010221425769224718, 0.006748721898500192, -0.008029484590357568, 0.004364656268442017, 0.0152926215603736, -0.0006491679600485486, 0.0055526594140071685, 0.004790832581009769, -0.008836815033957234, -0.018304157976094554, 0.001983857667431215, -0.003154115840402919, -0.023147882552948234, 0.0012668467898754208, -0.010525682746266307, -0.01569520363963347, 0.011046047590751227, -0.014948568348599475, 0.010923381985668335, -0.02303575597933767, 0.0058382063157956, 0.0013067527303394161, -0.0010340981236553095, 0.015106160301549026, -0.0007955399187595626, 0.006463902266131443, -0.0054284811371205985, -0.002483433743194775, 0.0014127011001494232, 0.0029956641164790563, 0.005130983426003334, 0.00018359455441247129, -0.0001623709064899841, -0.004032735236968227, 0.007762203179146975, -0.0033310987346448196, 0.007926367454172358, -0.006725099475319689, -0.019146858162622633, -0.021367717458503417, 0.008714626955374947, -0.004843688176103907, -0.01249171367588835, -0.004428406995451787, -0.0013147142091630092, 0.007726186774037379, -0.02471298780743413, 0.0015731659787960616, -0.010000388197690219, -0.00999794971836941, -0.009139721855062297, -0.0035225033977447687, 0.004215956262372696, 0.0037114296612810495, -0.0015559712013492042, 0.0052258358010888835, -0.005873216995328342, 0.0013245141168649337, 0.011574104920793015, -0.001104272979195205, -0.009692039670289422, 0.01687326697196225, -0.011872576549962948, -0.0010390028623514847, -0.009259555488475901, -0.015780675201856966, 0.01017785812399957, 0.018547022635346622, 0.004735820738958569, 0.004171295060125847, 0.010369247438273875, -0.01909428536897272, -0.0037234115058313905, -0.0024785649600176313, 0.0023550104672407754, 0.0038866937366035825, -0.004111231317270256, -0.0028023933901205485, 0.003597097055030584, -0.016574044469569338, -0.010642227704485075, 0.005936549217081287, -0.0035129931666712804, -0.004994624521888346, 0.012112926107090007, -0.01565870744559893, 0.010454561687128567, -0.0031590457443797498, -0.0014225306163274428, 0.015725327199387584, 0.007259154641322228, -0.004208209901642761, -0.0138684447313334, -0.002316920545519894, 0.015737119577330077, 0.0031549370358546452, -0.00370986736727588, -0.011068143191444935, -0.015291156308333137, -0.012190767344852032, 0.009453158418551176, 0.004721057867431193, 0.005981193286270745, -0.004006334261432795, -0.007903130512788984, 0.0011346325517345766, -0.0016477418650394462, 0.0036692307737197605, 0.017817726158986746, 0.008967124801148706, 0.012173025892205813, 0.005499256915991347, 0.01451590649747962, 0.0022009955801245867, -0.006789609026420687, -0.0009744259609141034, -0.002511763860134266, 0.0006925904669964033, -0.01663699543695023, 0.01595636248842199, 0.0064833061116056365, -0.006718797653745074, -0.006217265442201589, 0.008737593851604764, 0.006239213781144787, 0.011985533672200333, -0.0038413358030834456, 0.0011501405621197293, -0.008091340573016154, 0.024379249824687487, -0.010140744329341487, -0.004132202715610268, -0.014675529520770498, 0.02444746293464853, -0.010245676886934198, -0.004345364544304138, 0.006611096195413053, 0.007249100642584864, -0.0023256849369039908, 0.009788427887951073, 0.0017190089103018304, -0.00296118112494278, -0.006413952616700636, 0.0030223269136726823, -0.006344137682412972, 0.007534376952744819, -0.0036856670319399616, -0.00838599432983697, -0.004235509430940425, 0.009513514653561907, -0.008844808242467264, 0.004471801620396391, 0.0050882720503119235, -0.00685825891789297, 0.007960201055494909, -0.004602620009540398, -0.011733753281239346, 0.00013607770322416108, -0.0060354638789942615, 0.020399717427027873, -0.008574838425628645, -0.014467753069962348, -0.0004034826310617842, 0.0073988920165647225, -0.004001181446317102, -0.002474125317813277, -0.002722445219521561, 0.0054570964911191955, -0.027077053292520283, 0.006878349586322197, 0.007173906352140454, -0.008818322167623592, -0.006063364597929661, 0.009420474695390466, 0.005160020505647811, -0.004493340747794423, -0.0038460559610083867, -0.01085942508602932, 0.0019086778313159103, 0.006221884268435838, 0.007722358817261856, 0.00918747166876864, 0.009434607613688042, 0.0035760712990134764, -0.002177783011233051, 0.001163172520540347, -0.0033485863829004325, -0.009300086627239775, -0.008156669445635423, 0.015178916160046655, 0.008672832429760578, 0.0008900955885427245, -0.018097059184525508, -0.0030022322381526426, -0.00701219534058094, -0.001656386534805383, -0.005306182987606101, 0.007556721820038897, -0.001263045878862724, -0.007207478671135556, -0.004679505084647499, 0.00873917753649635, -0.017282558003651326, -0.008410246296208393, -0.012336482169367308, 0.025358388476342537, -0.006044949760563599, 0.006548043373223033, -0.017106810280616815, 0.0020993972146947405, -0.00837099966794894, 0.009823343011597175, -0.02005380943253616, -0.002191571952770637, 0.0034622709098855804, -0.006041963373383107, -0.014104453317009552, 0.0164573330830754, -0.0072626962882878275, -0.007805627260543005, 0.003904519467705457, -0.004826965391610802, -0.0024594352150650142, -0.002716149960449631, 0.018540344427520027, 0.006922986544198583, 0.0006417246964876724, 0.018957497103823367, -0.0027383993018655875, 0.0016700991882797882, 0.016715737072595598, -0.021265181075745373, -0.011767610585661089, 0.0044510040579437285, -0.011063572127935389, -0.000851369097149472, -0.0101688207073504, 0.007173457456332124, 0.0014752154299405929, -0.019460182255121652, -0.009299573393347669, -0.008879755380251897, 0.010940456990861366, -0.008753890256381765, 0.0055664718199347875, 0.0010430265725967737, -0.0048212097188898035, -0.009030761327582234, -0.00372846692999828, 0.005248032285106046, -0.004303273637109474, -0.011009262243682908, -0.0015147742614389768, 0.003998638550652913, 0.006313725686451006, -0.014299300808832065, -0.007084676487124406, 0.014140331427103935, 0.012123056035515011, 0.007019699745631175, -0.012483492328325315, -0.034464966067822386, 0.0003310555342592184, 2.9368584882290577e-05, 0.010656879891141665, -0.010302331183549776, 0.0009215893153775767, -0.015506875451287372, 0.005067233518389745, 0.0031390936850297473, 0.002513140357950062, 0.0009024489142479993, -0.006358524676700643, 0.008467910298236772, 0.0043077839916030635, -0.00667770822168021, -0.023138521687235937, 0.004668830290731926, -0.0009173705671156185, -0.005403295741936508, -0.009431513236987403, -0.004070182551296393, 0.014130266481132232, -0.011193532901701077, 0.0004920765279005654, 0.006199115264284774, -0.011887477455754532, 0.004536039205736852, -0.0025535548721316256, 0.0001946399390982303, 0.005635649526236569, 0.025192551050146703, -0.012283072413779319, 0.008822355786086042, -0.008303467306177063, -1.5169221247569795e-05, 0.0011513483972284053, 0.0002924980631426871, 0.007271800701842412, -0.005240890044372026, -0.01082878618728419, 0.002433236630877437, -0.029994397296324245, 0.006007951704780695, -0.006603459394258777, -0.009402793333864472, -0.01315586154749774, 0.0009279302225099424, 0.00346191992486734, -0.008293074538318818, -0.025366819251598293, 0.018216493948757045, 0.0048933896340702535, 0.018790686320708745, 0.0019243896020767432, -0.006167500089868814, -0.011997812472075622, -0.00916655226723217, -0.0019716602661315106, 0.010146395621260719, -0.01581678851344052, -0.004797433146070597, 0.0209215112832465, -0.0011673021331051368, -0.0026915252555578797, -0.0010555277855302373, -0.0018406067097479968, -0.015035385856354897, -0.00047470853639780276, -0.01687109866873298, -0.006636168766375216, -0.005728329269283605, 0.007368361740579375, 0.002035004577699124, -0.010287858523568344, 0.012976245082769119, -0.001057602696947704, 0.00944260354054341, 0.007993925459219545, -0.002299243521724809, 0.014680890120092905, 0.009264419410638028, -0.007868354805457542, -0.012755119435702332, -0.007733270948078106, -0.003273764637343998, 0.012429123251884507, 0.0025627130142226303, 0.008032386834140239, -0.0011653619393201342, -0.019188189387993694, 0.0058690118690465105, -0.0031700127369488616, 0.009395467685295575, -0.009324707704601162, -0.010329347409916614, 5.698400505319041e-05, 0.007557084753271113, 0.006473433303994488, 0.004357670542781433, 0.002072592016168755, 0.005816884953451715, 0.0003186669686570704, -0.009400067954619305, 0.004620792964968127, -0.0002880024029373581, 0.015446220077754818, 0.009532603835107222, -0.008681772328708925, -0.00267793807671913, -0.01068481015525994, -0.00554640685324295, -0.013375444831976226, 0.00523476206435184, 0.006990280262930187, 0.01199622552781344, 0.004305487507692911, -0.005678762577898923, 0.0005039859577624482, -0.0003743625413596549, -0.00401710049385638, -0.007469217518737338, -0.008385180347321598, -0.006820470500783984, -0.022800563814385343, -0.008458446094011446, 0.0059635239320333985, -0.005481574086113373, -0.009545182963528053, 0.00787993474611134, -0.010463540437226783, -0.004987513134437356, -0.003437403623390746, -0.0054604544507310705, 0.004779752421840955, -0.008761462351695589, -0.006373589214001008, -0.012611575875549518, 0.010106706721968756, -0.012258622645851192, -0.00031204855784415226, -0.0012561634761578731, -0.0006573315527142635, 0.005274729495246416, -0.005222119973231303, -0.0013286135905547253, -0.004744562035962815, 0.01034256151819444, 0.010289776533723436, -0.02109725632499792, -0.0040082564068459345, 0.012775843775360805, 0.005798557333339821, 0.010512686961535109, -0.023439023784972687, -0.005478506593169558, 0.004649556788273591, -0.0009406974260457707, -0.004724151770251839, -0.001346015574081441, 0.0031355698612806236, 0.005047462749500003, 0.001327749798311799, -0.004127531382538802, -0.00955055173173586, 0.01620872336220152, -0.015708201119677204, -0.005925557123950704, -0.03070313172183733, 0.0023956566262792254, 0.008466492675050235, -0.006679772933307395, 0.008906723649337193, -0.010974718847510423, 0.01458993998141718, -0.021020847423997308, -0.00490742801172691, -0.007068248584930183, -0.0041760504886524516, 0.021929999482181866, -0.004069291041690184, -0.0009317458083706836, 0.009014436495684248, -0.015806696546643424, -0.012482342456361933, 0.0014250279099046986, 0.010423219617539078, 0.00734327901273873, -0.00795327132530215, 0.01682214891129055, -0.0023553597420031057, -0.004460055589836679, -0.014707273056279354, -0.00986899822977115, -0.007788862896054712, -0.0026002169678061462, 0.0017701178390743982, -0.014893153185938835, -0.004427101162790874, 0.0031641883809643318, 0.01369927851521865, -0.015942678655602695, -0.0005431951841268745, 0.005952366633301946, 0.0028450803675992473, 0.015019796904218227, 0.005637430715508064, -0.00840378675529151, -0.002834977959034482, -0.01041835857492649, 0.0013573398347125733, -0.0015463695202260325, 0.021454737223944073, 0.0038869362758549393, -0.014495258390755762, 0.0089263744838299, 0.0015909024933533228, 0.0058276814836042065, 0.014872684470001772, -0.003184895987216471, 0.00016978247772249326, 0.0003699201896164019, -0.02343903042112682, 0.009168770719631045, 0.019309891261705788, -0.015856252238059605, -0.0040291092057305865, 0.005371399771870459, 0.025640391652795153, -0.008128244020703277, 0.015710434447287643, -0.009050109113607048, 0.0022327895556514634, 0.008728390715555229, -0.006684130296859564, -0.001260216178347722, -0.009462667542012844, -0.007661360121294866, -0.0025970201907173675, -0.013705502589948088, -0.011271346396365988, -0.02010133589200224, -0.01434827302854581, -0.0011818102137238506, 0.009013267464374893, -0.00564405605927678, 0.015643980772329886, -0.007329965919031744, 0.002886332502504739, 0.005552689528667848, 0.0005465370193335693, 0.002887756392225725, 0.0010713328875679683, 0.005742024008451331, -0.0014548788932301157, 0.0012143085587610254, -0.011270544143768877, 0.03178739273540818, 0.0083205908107619, 0.027404021404832002, -0.02308828855216823, -0.006672231289892274, -0.009705286315439016, 0.009096943040463759, 0.008970168474326426, -0.0008257976275064973, 0.004938503425514378, -0.016230994733373524, 0.013395634230343376, 0.014585626912411017, -0.0038284042123227966, -0.003330074699157388, 0.013417266901119567, 0.00035441878583249945, 0.001515560273456651, -0.009376831232218205, 0.021871082796852404, 0.024852972333343982, 0.012244872510497481, 0.006144940756752404, -0.015054007753226704, -0.004503782555410765, -0.0043541678628809585, 0.01162650602381692, 0.008336131893022231, 0.005837968503457817, 0.010396199439440715, -0.0017622625578882197, 0.0011976105879587667, 0.004928507571300693, 0.0017701276596553586, 0.0072270608228362215, -0.0030560389349434834, -0.019725941518029814, 0.011804432020396922, 0.0037871967421556027, 0.011453820640978246, 0.0052259247530958486, -0.0010323399802930839, 0.002296017853975941, 0.008613928925510838, 0.012544059628589715, -0.004928429130944156, -0.012790390888510195, 0.0027114552044230147, -0.009531571296865379, -0.001021537865954808, -0.011693598178674325, 0.0077948334335053255, -0.005046871795295247, 0.00962146878646415, -0.002616460956658835, -0.012008518909663998, 0.00678663151647315, -0.0025308460666187116, -0.00370459465173552, -0.005255617152168953, 0.0007822985639267512, 0.024119117243793668, 0.0017496655989895698, 0.013460230611339425, 0.012368760372103629, 0.016621297961844358, -0.0030015673930468938, -0.006098466704045717, 0.026685061479532365, -0.0018842051692997647, -0.0034377767243051493, -0.0018122042876196006, 0.001644383038625549, 0.006019498788022409, 0.007572594171744104, 0.022784979498781124, -0.006288509829294664, -0.0035214379878828295, -0.0003910309125997427, 0.0007038228480394957, 0.01951843852296613, -0.0164945128757175, 0.008509365184854253, 0.008418960718450332, -0.00024869438467442576, -0.01289409971137472, 0.0007283206325108788, 0.026762960276482103, 0.002935627205044714, -0.0034483959310602093, 0.00244827352027539, -0.008403723270969051, -0.010327144502871387, -0.00966950401970925, 0.00667322269721195, -0.007042965439688373, 0.0013689967372909743, -0.018451475766937318, -0.003869036906760674, 0.01163909844140938, 0.015950678942451713, -0.001966302605613674, 0.004368434105910642, 0.004043424052433724, 0.00607245555925245, 0.017401652077039136, -0.0011278205937550092, -0.012189091166593963, -0.004953717536214827, 0.003916692245248578, -0.006184880231708012, -0.0027914489185263216, 0.007184334804780814, -0.008673228024262283, 0.020518591372616423, -0.006321017014828355, -0.0005982675469999929, 0.019168708575223476, -0.0045181029205415444, -0.011967547820256415, -0.003106992910052296, 0.020417578007129705, -0.009939370739432338, -0.00039805790684732407, -0.004262135398973505, 0.01776358175328695, -0.0005757556014927699, 0.011846859055718728, -0.013547513282626709, 0.00469584577689728, -0.010454014081288033, -0.0011038091948030913, 0.0003318278703095132, -0.007515641119606976, 0.004481621929390919, -0.0031657937355037765, -0.010186964913473442, -0.006348973490102265, -0.00823690928208606, 0.003052208106302391, 0.004961374960683054, -0.015104046184513274, -0.00039345376425217694, 0.011587106812857528, 0.01230223353820381, 0.0020535437573099883, 0.0026574515665542587, -0.011838456761033496, -0.0043534902193796046, 0.012532062273129318, -0.012552318970183092, 0.000576254999145326, -0.0001325226926956707, -0.0054577441838004025, -0.007235338157122977, -0.003374163512664586, -0.011824267749680319, -0.006617911191176303, 0.0009305633368641733, -0.003827583399212996, -0.008278927062344002, 0.005253854353499848, 0.004351138248971945, -0.0021702285098881046, -0.009372813659425343, -0.02468927041794893, -0.01406650808220865, -0.005855028072281316, 0.011597983908000344, -0.008023267625102469, -0.018805168142207684, -0.00760265794046952, -0.00045916858656126866, 0.001515677954808956, -0.008863213491379023, -0.006533389022447025, -0.01949089259465576, -0.000721156277742125, 0.008296431637239712, -0.010408451072556557, -0.007694700746354565, 0.002985339556203906, -0.011825185245740522, -0.0028680915764916124, -0.008282105954875876, 0.0031183214051782315, -0.00043498075789470203, -0.0006706464615544271, -0.003426778724341423, 0.01458241679961167, -0.0036083028581904777, 0.009984453940540844, 0.007344362930589446, 0.0005583477975312012, 0.0059037112892480585, 0.005597915692145975, -0.001890717186968279, -0.003934454553462887, -0.003231764923339763, 0.003924669395239568, 0.009418412058949976, -0.014018767338997849, -0.00853843901467824, 0.004576217726165227, 0.006985032410665016, -0.018708640446777898, -0.012687117684539444, 0.011187317122955275, -0.012517358747724722, -0.010176936102265775, 0.0067820562016366465, -0.028048011370108688, -0.006031622032873153, -0.00021421209442455983, 0.005827087973064079, -0.009687114615611102, -0.008606283340269907, 0.0007021386801927597, -0.0026598556541508694, -0.009963650708236346, 0.009101906102642816, -0.0033319670996780656, 0.000982689502642844, -0.01074599131986767, -0.00904125221241478, -0.004437467726378358, 0.005737621126988202, 0.008133788710589535, 0.00038657495533541363, -0.010154046069592798, -0.0316578150665478, 0.014222594806432952, -0.007434330651954127, 0.01458958470926386, 0.010993597610606453, -0.0013513403519685707, -0.005183750801390981, 0.0019092025587648946, -0.012854889786187642, 0.0014993098438489544, 0.010012203177689324, 0.0049211238821949615, 0.005104144428965497, -0.017954188564595647, -0.00023085442143074635, 0.010894866486263885, -0.013289301480147005, -0.0002207217604500463, -0.013551506608925247, -0.0016139380848537049, 0.0031819037443706778, 0.001396173511509483, -0.003125000680095904, -0.008554664842839413, -0.005746508528497926, 0.0038817525959859143, 0.005855661824669395, -0.006438816181709203, 0.016819773094634036, 0.009535974330307895, 0.0017677873658018496, 0.006588575227863097, 0.00940934561408567, 0.0073954724086853, 0.010572857205946263, -0.0069451450940301255, -0.005652618654306792, 0.005977124497709528, 0.013041948617124101, 0.0020672874727758078, -0.004717334918028357, -0.016794400822914512, -0.014426804677229118, 0.0004656381953449239, -0.009621435475882328, 0.009205242049122639, 0.0016867435932121629, 0.003473384291052634, 0.007727933000791497, -0.006007721128547913, -0.005254156527558704, -0.008952183306084384, 0.004375035494344457, 0.010425724166454282, -0.0117314325737783, 0.001544981648959297, -0.011519743845658346, -0.01964996256226845, -0.0021742261419216992, -0.01660339080253675, 0.005630394097786689, -0.0006425395114632016, 0.004533426340929043, 0.0007846238584516868, 0.002060604509845493, 0.0077655670227287235, 0.008349539566076123, -0.004083144489491926, 0.014580854476969817, 0.006419337958784197, 0.007420582185331278, 0.010209250453681425, -0.010467208221807219, 0.011080061124527347, 0.011474500694543418, 0.017039593650857995, 0.004884808503337665, -0.006861450847058441, -0.010237314432180813, 0.017754182408105543, 0.0059399318516009415, -0.007773873975172691, 0.0006089983953348069, 0.002999246281743627, 0.0031318983649613963, -0.0032305888451236954, -0.008461940481652027, -0.00015596707369577417, 0.004386159545215701, -0.004479227650897028, -0.0006937987237218205, 0.0038638418637509733, -0.006183141501111544, 0.006487977500463405, 0.020853505991997413, -0.010223008861723067, 0.01198122794345218, -0.015136387426892156, 0.015757826420195336, -0.00889053211787118, -0.011796798928522333, 0.0020214207087583106, -0.009792884194851172, 0.01792462877426199, -0.0018790749209347717, 0.006309125102221306, 0.005621035144555907, -0.004837531957902621, -0.009405508993917915, -0.020646353590381316, -0.014357426111525849, 0.0138529611140267, 0.006402116176820373, 0.007332954935480427, -0.01053296484947842, -0.006219916220089316, 0.0058885494982094805, 0.0008550888601093382, -0.00044326366468635175, 0.004465125379239168, 0.00813771194901006, 0.005570278899630343, -0.0004627605642186715, -0.0021154560143660005, 0.014347283163768333, -0.004783466503852637, -0.016814025623096945, 0.01750095124671456, 0.01532161543707785, -0.008262088714646305, 0.0013196308709767168, -0.017298476243403724, 0.008802116058182539, 0.0008908691863491691, 0.01559993813408268, 0.00025088070712845685, 0.00873950683279159, 0.009752261316879153, -0.007968770867290472, 0.005932773970756998, -0.003580134562426628, -0.01648066998703319, -0.005243626107599988, 0.001421816941422082, -0.011090066365102671, 0.008173198452414158, 0.005088153190074599, -0.007241140074256362, -0.001976882467850434, 0.007744964136015778, 0.008194436560153524, 0.011218802481243437, 0.0029410893371810986, -0.015916541313000958, 0.020897046162302674, -0.0002761045921864893, -0.001579503848257409, 0.009106702350845824, 0.008018208744063397, 0.008183411869943815, 0.005482028598602948, -0.008765996049100418, -0.017592510093987216, -0.017044260199956886, -0.0004926858086523733, -0.00652370701984178, -0.005950065879609573, 0.001050804869961545, 0.0015683909809056814, 0.017950591171997238, -0.008371914990764137, 0.000312176176292411, -0.0019621019911931726, -0.0023655109549318696, -0.0096040147758718, 0.016283102789475486, -0.005094275495700879, 0.008516326273291373, -0.004174206845629752, 0.013486803227559418, 0.007201589521458264, 0.0030644774723877157, 0.005478558579263089, 0.004140970392729421, -0.013086639223540792, -0.0007688895013855721, -0.007610796471023894, 0.00669973590084824, -0.0011235231551475656, 0.000946245556904057, 0.012616374694387835, 0.008031067685833828, -0.005084419183044855, -0.0037071390415116213, -0.004549909257506062, 0.00640262774568134, 0.0008565814329395088, -0.00138886475227112, 0.003721180615851971, -0.0022902421425555217, 0.016861774371177862, -0.00920988825323803, -0.002384841209371424, -0.004834605940020181, 0.006169589562597427, 0.003063103594995756, -0.007456391942936425, 0.015285179967911079, 0.013315091061235056, -0.004834352113130752, -0.0013934075439477646, 0.014293447758738998, -0.014689863859139913, -0.010308511039727396, 0.0060726145073306615, -0.008432132622980227, -0.00416307741435438, -0.0028112116206761633, 0.01132766380240819, -0.012225759807552378, 0.004697605263752961, 0.0042999915961064745, -9.129601366333076e-05, 0.015088675016001788, -0.019296978264438092, 0.0018234435274701042, -0.018075253122940296, -0.0060570952131760855, 0.009050709767628728, -0.0030408936287888945, 0.0009346140768526205, 0.003605573517028607, -0.006261923610304434, -0.008678268365774674, -0.01819835904253058, 0.00587485519119307, -0.001948506918521829, -0.0003069249907677295, 0.0031990529246170305, -0.00328750071301893, -0.008880766016836225, -0.002659906945709609, 0.007217253791887365, 0.007570578905371453, 0.007162883548818094, 0.012929455465543353, 0.006799357839387606, 0.007807028579094861, 0.009154247544880959, -0.012581612694951847, 0.00047183281920304, -0.00706898960583869, -0.007267120383306078, -0.008366718591917222, 0.01443814983034227, -0.018015379988363785, -0.0072406628120259735, 0.0007210160217029749, 0.002770880567391127, -0.00840117728400101, 0.014587990587918653, -0.0018520614062005932, -0.009549069568341735, 0.003140922188059022, -0.0007498537582512736, 0.012662265047489539, -0.0072303657377973014, -0.0038686320169281315, -0.005403725259306472, -0.006782017362901524, 0.003821723085791605, -0.005065851952197012, -0.005101409552941781, 0.015100222265237424, 0.0030396548005004196, 0.005513581356305227, -0.006331770271218559, 0.01099737407067414, 0.0067670842360413284, -0.02241355402766854, -0.0013624622037437097, 0.00015512631473593684, 0.003588786611568657, 0.01901725710399583, -0.004208577748164949, 0.0001824913073299563, -0.011544093919713018, -0.003923396403499419, 0.014376612299282943, 0.02133980761202835, 0.0069472673073914136, 0.009118665739679533, 0.0009664486886888332, -0.0013762114883519429, 0.00021518282173312996, -0.005564660007035083, -0.01704402622895623, 0.009180279156040663, 0.003980309510297051, -0.006911529089960412, 0.00023276801200069588, 0.010037698881059808, 0.0037516662503172204, 0.01914985250231189, -0.009300960440669923, -0.004284657104665163, -0.007943276225353067, -0.01722331861651519, 0.0059439357795792545, -0.013088151652576886, 0.004300197901723994, 0.0004854821388585494, -0.010179589088270345, 0.008553581999906423, 0.009902509641516634, -0.002061117868698403, -0.006111917731180225, 0.011097283739544049, 0.013218946104469576, -0.004268312289989125, 0.012720519334692388, -0.004270228943789301, 0.016046471704003626, 0.0034695044429538615, 0.007888076025885503, 0.016573253030224375, 0.008203218842877212, 0.021734763417266895, 0.0029249761316637443, 0.011365880576366089, 0.005716760958578647, 0.005315322472236278, -0.00031807892985496913, -0.0015969300981599735, -0.013033626875916167, 0.0027333229707542724, -0.0074026903112374975, 0.004599958353888517, 0.012904866913005766, 0.005043252318654417, -0.0034757444744622262, 0.004580108097236512, 0.008686478361438403, 0.003986107986132092, -0.00224772829616406, 0.00157996807538939, -0.018286135385887622, -0.001715439671871809, 0.004351815097647335, -0.007122564944204475, -0.018637298920814654, -0.011460702736691192, -0.006857645796506554, 0.00588099129993831, -0.029506808308313422, -0.0020081374157861842, -0.006409515109981162, 0.003602073667238383, 0.002670816632697064, -0.0034687181966180443, -0.010107934222941642, 0.00673748758399171, 0.0003129058391908167, -0.0012897465565944106, -0.012122406912170426, -0.014117523363009888, 0.0014534304119585746, 0.016328837022017834, 0.020810277477667324, 0.005568801434391221, -0.00021817340511617569, -0.013930144902160132, -0.00733096373698469, -0.008494047570987347, 0.0034202965687914052, 0.0015219124743917184, -0.005372719258612131, 